furin,0.3208344,-0.022526255,0.507515,-0.16547813,0.3109522,0.69914067,-0.46589088,-0.17808817,-1.6895703,-0.04144489,0.11747418,-0.104018874,0.62715733,0.26811948,-0.7108718,-0.1612242,0.7113673,-0.8663991,1.1642094,-1.9177943,0.43653652,0.99740356,0.90153295,-0.7353425,0.17599183,-0.9363655,-1.9260905,-3.0227184,-0.26898596,-0.33418804,-0.6009356,0.13355953,0.00014068634,-0.9157838,-0.52683854,-0.39002678,-0.22055854,-0.5976535,1.1841607,0.76451284,0.99440926,0.38721892,-1.129906,0.18882702,-0.32025495,0.42668223,-1.4926792,-0.4122362,-1.6862648,0.44554868,1.7541012,0.13967606,0.11577028,-0.35064137,0.87101996,1.9517342,0.12689528,0.33803657,-0.22232355,-0.89754665,-1.7171345,-0.41936478,-0.3700556,-0.98251325,-0.63372713,1.0631449,0.062160376,-2.0055892,1.2560424,-0.3957829,2.2379904,-1.7970418,-0.4444224,-0.07990755,-1.3807687,0.83125,-0.242806,0.36487034,1.8431406,0.46452957,2.238387,-1.479046,-3.6794727,1.0018517,1.7801063,2.1686192,0.4043071,0.20377263,0.78809667,1.1990385,-0.11269072,1.2849723,1.0850888,-0.14483532,-0.0056478432,1.179814,1.1446095,-0.80131733,0.721383,0.69753486,-1.1988332,-0.7743732,-1.2841568,-0.68788445,-1.1221259,-1.1659869,1.3362174,-2.1421812,0.5256004,0.03926931,-1.1066436,-0.7105521,0.50515485,-0.4787258,0.3286748,0.7028315,-1.9433926,0.5878933,0.7428868,-2.3064582,-1.3651408,-0.6210475,-2.9590404,-0.7403142,-0.6190855,-1.1729317,0.67813325,0.6319449,1.359656,-1.0238696,1.9566628,0.40096667,-1.508625,2.041648,-1.4025762,1.0673174,2.4059575,-0.4716159,-0.81556284,-0.5203799,0.011310007,0.51568526,0.47309035,0.9272668,0.5804453,2.4045098,-1.1144342,-1.0476177,0.9798016,0.50870806,1.0833533,-0.35033327,0.67290175,1.6315373,0.4733825,0.33890733,-1.2415593,-0.18555687,0.30901346,0.22994834,0.8463046,-0.64069,-0.38888863,0.28735435,1.2141639,0.93861336,-1.258728,-0.88514733,1.0287011,1.7719836,-0.60658664,0.8428485,-1.0720412,0.28607446,-0.025650995,-0.86334085,-1.1054293,0.33278438,0.4338154,0.55723387,1.8242004,-0.06345295,-0.07276616,-1.0334952,0.43890518,0.84332144,1.660065,0.3766743,1.0505778,1.5117384,1.2828046,-1.178712,-1.2166375,1.0038105,-0.0924727,-0.28978062,0.6426974,0.8539595,-0.5914627,1.3490075,0.95359606,-0.80506694,-0.9223852,1.8627775,-0.88270134,-1.5880866,0.13969783,0.002269726,1.1367586,-2.72266,2.5503843,-2.092028,-1.3472095,2.0383675,-0.43844232,-0.13493834,-0.15429726,-0.6861226,-0.16608182,-0.0056695663,-0.30332628,0.0071966783,0.8012571,2.7394428,-0.40918648,-1.0724157,1.811701,0.12734184,-0.63527703,0.44544566,-2.5219793,-1.7949928,-0.11613319,-0.050363448,0.8825881,0.66515964,-1.1190606,0.62250775,0.12700109,-1.4679935,-1.683575,0.7378473,0.27378467,-0.72821707,-1.9987414,0.85777,-0.26913226,-1.5428798,-0.10371962,-0.024891626,1.3667018,2.263206,-0.37676364,-1.020751,-0.16817681,-1.2705085,-0.7063919,-1.7697443,-1.2732967,-0.5938654,-0.26814714,-0.21005172,0.6638705,-3.2238662,-0.9483918,0.40740526,0.53705007,0.33689487,1.5002805,0.24429066,1.1304982,0.004957958,0.13956703,0.972344,0.5847018,0.062606014,0.7879696,2.2758534,-0.31116337,-0.54596364,-0.090648286,-0.22728841,0.8365028,-0.3367753,0.35700613,-1.0324497,-0.7661086,1.3761008,-1.3185865,1.5182499,-0.24882615,-0.11667819,1.6635184,-0.6594426,0.037228152,0.42914465,0.4998138,1.0903437,-0.88657045,0.692795,-1.3819866,0.27232572,-1.5836891,1.1067927,-0.8690852,0.38264126,0.18422571,1.3224224,1.4694449,-0.67172205,-0.028281176,0.17070056,1.6061047,0.6130767,-1.1536735,-2.2411082,0.08840099,-1.0308663,-0.65914565,-0.353036,0.6401357,1.4344223,-0.65613574,-2.227725,0.34005755,-1.0406598,-1.319077,0.24297255,0.20845713,0.19704658,-1.1732682,-1.050506,0.14692737,0.54314196,-1.4933134,1.7920095,-0.4032595,-0.48514834,-0.08585939,-0.025103137,2.8251002,-0.43094766,0.5580293,-1.2274252,-1.2546332,2.4966893,-3.6550038,1.7175063,1.3851929,-1.7907639,0.35099742,-0.16739066,-0.07888302,1.0113635,0.4709257,0.35557604,-0.91685075,-1.3910114,0.7458216,-1.5372064,-0.8972772,0.58612585,1.0301807,-0.07455392,0.4044005,-0.028371284,1.755071,-0.06916548,1.6599035,1.6224492,-0.38691744,-0.15939608,0.11953852,2.533257,-0.65416837,-0.49599856,-0.5462719,0.6584795,1.2183614,-0.65598226,1.989197,-0.045158684,1.1373667,1.3394461,1.6712512,0.77286434,-0.19319789,-2.4669986,-0.69078326,-0.48375216,3.2893898,-0.68895036,-1.1485093,0.08972036,-0.9164209,-1.7526019,-0.9618475,-0.7727865,2.40615,0.16764358,-0.94465095,3.1731746,-0.60280013,-0.27503455,2.3688877,-2.0220952,0.33506292,-0.040769543,-0.50597006,-0.48675245,0.046239372,0.94365644,0.44803256,0.3530904,0.0979587,-0.5506443,0.5800297,-1.3401151,-0.45905116,0.09359648,-0.4027992,0.27970585,-0.23500217,-0.6328111,0.21709809,-0.12551187,-0.050639138,0.052081566,1.4791722,1.6768091,0.14428721,-0.5571697,1.1488593,-0.7305196,-0.44849217,2.5584104,0.55377007,-0.3929375,2.0322833,-0.6168263,-0.89558744,-1.5486828,0.35082585,0.19132797,0.23916066,0.27987728,2.2365017,-0.07974621,0.029678248,2.4826796,-2.2711291,-0.60610557,1.1283644,0.35500026,1.5858555,-1.0336509,-0.2769759,-1.1652871,0.9687302,0.6494973,-0.90735537,1.644658,0.7526644,1.4418247,-1.5614538,-0.69695914,0.53307074,-0.28901327,-0.6182356,-1.5084729,-2.3600538,3.0929117e-05,0.9112173,-0.35149208,-1.0616632,-0.058657806,-0.032807954,0.41398484,1.3671435,-0.33908045,-2.7018785,-2.066615,-0.6911645,0.425749,-0.55668545,0.6745083,-0.4073416,0.24840449,0.2412062,0.78136885,-0.56037056,0.16489395,0.64178,0.8879363,-0.36693686,-1.8801091,0.51064974,-0.10826469,1.3330939,0.0141674625,1.283399,0.26751348,-2.7319825,-0.6519827,-1.3324983,-1.1087939,1.4168974,0.24339935,0.46120164,-0.2882148,-0.108352214,-3.0571644
prkce,1.8474653,1.1315852,1.5083768,0.27064735,0.13509564,0.70665437,0.16898039,2.9734602,1.8746835,-0.98741007,2.1517482,0.85714,0.11079156,0.6465622,0.74301374,-0.013079632,-1.4340392,-2.2569327,-0.574067,0.7020437,-0.5759632,-0.8678578,-0.81044394,-0.51077646,-0.20982568,-0.15522362,0.20926577,2.4013398,0.50777125,0.45505783,-0.18054007,2.833296,0.29589564,0.3848528,0.65852594,0.88523936,0.7820944,-0.7972662,1.6863569,1.0031735,-0.029346412,-0.7677281,-0.5062278,0.72831994,-1.4294308,0.27488467,-1.3276455,-1.9683506,1.3963276,-0.043366153,-0.52510244,-0.44021168,-0.8305922,-0.43384087,-0.17879926,-2.0793025,0.37993366,-1.2242372,-0.8297257,-0.38115427,-0.4101461,-1.378542,0.8885129,1.5214989,-0.9117418,0.097810864,-0.5644586,-0.29658285,2.6175861,0.15498912,1.3850455,0.8021715,-0.81412554,-0.68904644,-1.5857174,0.6848486,1.3611019,1.2365544,-1.1281344,-1.3210032,-1.6128677,-4.073993,1.75014,-0.044148877,-0.4845865,0.51239955,1.7918694,1.1125706,1.0282505,0.057294637,-0.1505049,0.08225306,0.42585424,0.30698392,0.21491085,-0.78981686,1.1208572,0.107994534,0.8858371,-0.08928845,-1.8084351,-0.5599176,1.0964518,0.002421481,0.3069465,-1.2733464,-0.9890468,-0.8357537,0.3759111,0.5279123,-2.436551,-0.35965282,-0.21332434,-0.8282293,0.97650343,-0.47713593,1.2369249,1.6567,1.6485302,0.35841262,1.5678588,0.15957949,1.6271532,1.4789562,-0.81566525,0.056971822,0.3626426,-0.39385596,0.33717433,-0.52834064,1.3387713,-0.19688238,0.8450306,3.0469997,-0.6626994,-0.6500563,-0.3812424,-0.61547893,-0.7274088,-0.92861366,-0.04052812,0.8224,0.46534747,1.4018213,0.62356657,-1.1680677,-2.501061,1.5748229,-0.82547665,-0.8254591,-0.7556443,-1.246361,1.6465172,0.798819,1.2193513,0.61394787,0.623572,0.38826287,-0.19645368,0.45265722,-0.49345616,-1.0288908,0.7309368,0.14931443,0.3995261,0.5954714,-0.0604267,0.7984072,-1.1667649,-1.1062797,-1.3690413,2.2631202,0.81840074,-0.33148345,0.0047540977,-0.12393863,1.2867383,0.53555954,-0.44226348,-2.2814453,0.08112484,-0.89295685,0.23940471,0.22847198,-1.1225471,-1.0206264,-0.6209092,0.41490924,1.0773035,-0.67016655,-0.7832552,1.1200012,-1.2174177,1.2983775,-1.274598,0.6981779,-1.6513002,1.9732789,0.4532121,-0.29910547,-0.54112726,-1.3829039,0.24052808,-0.1087395,1.210851,0.8354846,-0.055732127,1.0587984,-1.5733757,-1.9353703,0.20103945,1.213942,-1.6960481,-1.55951,-1.0403628,1.4389094,0.26383802,1.4067208,1.5243299,0.96251994,-1.5541193,1.216425,0.5119114,-1.1016369,-2.0193307,0.30315214,1.4452574,-1.0945694,1.337564,0.44422504,1.7208561,0.76560414,-2.0162532,0.8897088,-4.74378,0.43495652,-0.04709538,-0.57991886,0.83687514,1.0574181,-0.46323,-0.8502368,0.73694456,-0.21405938,0.6376739,0.6563826,-0.9889103,-0.046807114,0.6782982,-0.092121825,0.4693275,-0.8395252,-1.2912709,-0.97768956,-0.10196347,0.5046141,0.14833866,0.49763486,0.1251256,0.117196925,-1.641157,0.65810645,-0.7408401,0.32676095,0.81842554,-1.7048799,0.15971717,-2.4453914,-0.023933839,1.1959782,-0.41267526,-1.0809119,0.45955423,0.5513894,-0.67986107,0.2423123,0.23818833,-1.4551736,1.0586395,-1.0633457,1.9346551,-0.75626796,1.8406479,1.133416,-0.12430182,0.31229445,0.13139512,-1.2243818,0.82101846,-4.137398,0.21565647,1.0862123,0.17593445,0.42387724,-1.5930786,-1.9233868,-0.31362516,-0.75320494,-0.87765247,0.47277653,1.2384124,-0.43710658,-0.5191123,0.5355267,0.36971325,-0.2294352,0.35968915,0.7337476,0.6283673,0.005916196,0.5199708,0.37641168,-1.3211554,-1.6304563,-0.46439496,0.12014965,0.3308276,0.038182754,0.36659327,1.1786593,-1.332429,-0.20423248,1.3225269,-0.67765415,0.9505116,0.031710733,0.43675688,-0.3182903,-0.7153596,-1.2586814,-0.9271272,1.4834018,0.097706,-1.6129686,-0.3519321,0.9755511,-0.939718,-0.60212314,0.9926565,-0.027683401,-1.0666476,-0.96934044,-2.017893,0.013741687,1.1294134,-1.0645391,-1.4468299,2.1528456,-0.02773792,-0.21965142,0.80139583,-0.35309336,1.0965202,0.13923657,-0.9021961,-1.0853703,-3.510637,-0.47816312,-0.24399711,1.57817,1.1909275,0.88430244,-0.2703504,-1.6866051,0.4387109,-0.5656457,1.2739211,0.054900307,1.5820609,-2.4893355,-0.9191533,0.8941043,-1.1470656,1.2933263,-1.3790021,0.12015726,-0.37582293,1.953456,0.065657765,-1.1358219,0.80274343,-1.3291054,-0.086559795,-1.7785121,-0.94262445,0.8757651,-0.43758526,-1.6821895,0.072430626,-0.4407264,0.02851123,-0.8776118,-1.4943374,-0.0038457203,0.4758523,1.6402998,1.3606313,-0.63660413,0.09365167,1.1005069,-0.96952736,-0.20851031,0.18688822,-0.056558046,0.33157882,-1.1814208,-1.3212627,0.49627194,0.14014179,1.3766962,0.92007995,-0.09014993,-0.596983,2.0247412,0.2932415,-0.14402315,-0.19036274,-1.145327,1.8248742,-0.18370384,0.61757576,-1.486434,-0.79927695,-1.3210968,-0.07722122,0.49844483,-1.3975025,0.82736254,0.6263928,-0.18151753,2.1018207,-0.69418544,-1.0019823,-1.6773235,-1.4140234,1.933922,0.35085434,0.7682307,0.13950197,0.44808894,-3.0561717,-0.2409421,0.5594513,-0.32210237,-0.9376574,0.38209105,0.928904,-0.189185,0.8986931,1.2143632,0.3496602,1.1077045,0.47245577,-1.848898,-0.10109382,1.5811386,0.78402567,-1.131546,-0.38773412,-0.6375382,1.2161437,-1.0548277,1.0909547,0.21109541,-0.7138744,-0.45328754,0.026913079,0.35049683,0.8359109,0.57847923,-2.7672067,1.0356779,0.60477954,-0.5999883,-1.2209865,0.7899736,-1.1809841,-0.38937572,-0.03838392,0.23258021,0.023891501,1.4371802,-0.99229807,0.5351074,0.13175288,-0.051736347,0.97051245,1.871759,-0.45378143,0.3155049,0.6135708,0.14503564,-1.3915545,-1.7729654,0.13887545,-0.9501366,0.72368115,1.966229,-0.69874275,-1.7112355,-0.8231158,1.748955,1.1691476,0.40305692,0.35922605,-0.7058799,-0.046103872,1.5577451,1.0908487,1.0627261,0.90448964,0.050810557
prkca,0.40855289,2.369863,-0.7954716,-1.8728173,-2.08193,1.4650589,-2.2341359,0.3344369,0.8252992,-0.65140855,2.3389485,0.025463369,-0.8475162,-1.8448611,1.094828,0.4512859,-0.01760583,-2.4065056,-0.8869809,-0.9098614,-0.3558252,0.44924447,-1.2023609,-1.3007094,-0.92349595,0.45843628,0.56025076,0.73566324,0.79499793,-0.8637371,2.0050495,2.0755072,1.3812482,-0.061324477,-0.70527226,1.3912182,-0.2570479,-1.1187453,0.74879855,1.841683,-0.8522811,0.8180657,0.5734882,2.1519,-1.3172737,0.65100765,0.6036498,-1.0192362,-0.23291233,0.4175156,-1.2094826,-0.41464922,2.530059,0.6834315,-0.51455456,-1.520981,0.040428475,-0.9147151,-1.1628035,-0.08355007,-0.57540256,0.64654815,1.0009304,-0.23324868,-1.8849797,-1.0422534,-1.4090855,0.14148074,0.3119018,-1.4823513,-0.42155582,0.32935068,-1.7327374,-0.99588406,0.5473307,-2.4241445,0.54537994,1.0282961,-0.26694956,-0.7963418,0.4769923,-1.5853682,1.2571732,0.44718686,-0.41897377,-1.7462136,0.847755,-1.0317019,0.17588678,1.3836722,-0.7072804,0.9366237,-0.106647685,-0.13847703,-0.36268452,-0.6351655,1.8114941,1.9522164,-0.16079067,0.26350453,-1.7497195,1.2260616,0.7215821,1.2201309,-0.81322086,-0.57041174,0.9674087,-1.8954375,1.3053784,-0.411029,-2.2940874,0.077274956,-0.096471064,-1.5227873,0.30392736,-0.548772,-1.7786684,1.0633126,0.25974932,0.28730166,-1.9197345,-0.7246424,2.3480334,-0.018345205,0.35300392,-0.25782558,-0.0664115,0.66436553,0.34013274,0.9459868,-0.7623004,0.8083915,0.50941175,0.30705076,0.1148305,-0.16111004,-0.6697791,-1.1841035,-1.0185686,1.9154782,-0.38236058,-0.7657337,0.014171148,1.2202334,-0.67254066,0.042806283,-1.8720466,0.05963491,-0.5399156,0.08766339,1.9885256,-0.82301456,0.9293358,-0.98327446,0.52151614,-0.49419418,1.4055067,0.86894226,0.46139672,0.9320722,-0.5269626,-0.4746584,-0.37206456,-0.66441995,1.770107,1.5715455,1.3851336,-1.0559655,-0.46151954,-0.2862176,-3.0479932,0.5101371,1.3251867,-0.7369509,1.6926802,-2.6163156,-0.0030368017,0.88213855,-0.26438195,-1.8693372,-0.30037466,0.40963998,1.327176,-0.6946455,1.3630097,-0.29143837,-0.025436755,-0.44925097,-0.51161295,-1.6987492,-1.3215123,1.6796781,0.0576778,-0.33331335,-1.4200476,1.2444724,-0.004999975,0.3288022,0.48838514,-0.33465895,-0.8712153,-0.46314576,-0.13180259,-0.36528578,0.28323424,-0.32018253,-1.122577,-0.12611786,0.589801,-0.90435743,0.54451746,2.6809406,-1.6335006,0.69935,-0.49721703,-0.6218731,1.2871665,-0.6066221,-0.07407588,-1.0286584,-0.15300466,2.5849798,-1.8214802,-0.9046586,-0.25380626,1.5843621,-0.5251809,-0.4658525,1.279602,0.9295951,1.07296,-0.6925655,-0.4515164,0.2432796,-0.5069774,-1.1287766,0.010481713,1.0363187,0.3013251,-0.035557475,0.6312699,-0.759017,1.0959352,2.395513,1.4496716,0.5672831,0.12860872,-0.8749358,-0.258678,0.016198078,2.6468315,-0.80585617,-1.9941312,-1.1685663,0.5882904,0.3741627,0.99709105,1.5674446,1.5248486,-0.4371387,-2.692897,1.4872875,-0.22603415,-0.058908045,0.33495048,0.10332876,-0.56681204,-0.24638918,0.5990539,-1.3864951,0.2664959,0.24216579,1.7606738,-0.62370455,0.10607755,-0.48111615,0.060833417,-1.0269527,0.3471932,-1.0251236,0.069373615,-0.00983763,-0.7320439,0.38214898,-0.49638018,1.5852053,0.1823356,-0.18390642,-0.3174645,-2.1063623,0.10250815,-1.8945715,0.28939193,0.1505004,-0.47112486,1.0513822,-0.8407003,0.44920358,1.1148022,0.32871622,0.45673233,0.08268752,-0.6122039,1.4799037,-0.72686136,1.4965937,0.27073383,1.431976,-0.9388442,-0.8706984,0.71737516,-0.39151427,-1.35973,0.8916545,1.2659594,-0.8782893,1.0243981,-1.0458683,-1.350401,-1.2879934,0.2807006,-1.0314846,0.7135346,1.820424,-2.0884082,0.5460158,-0.7361202,-0.6317295,0.58471507,0.15152507,2.626824,1.1850852,2.4200695,0.77202165,-0.8366942,2.402694,-0.8506738,-2.1687841,-0.33302018,-1.9350069,0.25951022,-0.8953875,1.2970953,-0.040650595,-1.6894809,-0.6489502,-0.2743943,3.7424831,-1.1736062,0.13673872,-0.5229929,-1.9226191,-0.022857692,0.68114454,-1.3118392,-1.0402073,-0.87381065,0.60713667,-1.0077807,-0.028937656,1.3251938,-0.7521135,-1.1541585,-1.1776141,0.39738062,-0.83344656,0.6517047,0.21405558,-1.024273,-1.3422598,0.32060906,-1.7601696,-2.221613,-2.2804132,-0.011486496,1.4343734,-1.1801819,1.204845,-0.15970133,-0.92504686,1.5807567,0.17392747,-0.23427813,0.13763772,0.24406122,-0.8502626,0.9563581,-3.215807,0.5307437,-0.29354912,-0.7258115,-1.1267476,-0.71496475,-0.9796513,2.4777884,0.62333673,0.98166233,-1.0681099,1.7231728,1.1968604,-0.29873997,-1.3209919,-0.4914525,2.399578,2.4195237,-1.5540346,-0.14521314,-0.40709135,2.0301728,-0.78742826,-0.66315615,1.1273272,0.25324252,0.037547506,-0.47884846,0.28095555,1.6352559,0.6927711,-1.9302387,1.5721331,0.5818409,0.82611287,0.11112305,-0.42110875,0.513486,-0.7830561,-0.18511167,1.4913578,-0.032380603,-0.22993425,0.4091236,0.4303388,1.6725702,-0.78776866,1.6081984,0.13247482,-2.3714762,-0.33852112,-0.077231795,1.1114966,-1.0976187,0.10625864,-0.05770504,0.9182271,0.19717924,-0.07255086,-0.8040958,-0.38779584,-1.1914306,-0.70984304,1.1746473,1.8664136,0.27609533,0.5527264,-0.1087204,2.1301565,1.5296143,-0.7006097,-0.56594354,0.8588952,-0.21228543,-0.422866,-0.00025563524,-0.038616277,-2.0333931,0.043134335,-0.44574162,0.6353442,1.1122915,-0.83644384,-0.98183936,0.5215747,2.049941,-0.9474481,0.09755226,1.4537548,0.22798413,-1.0728881,-0.056523483,-0.92813957,2.0722063,0.83442986,0.089618534,1.8976967,-0.52294636,1.2438715,-0.5013036,1.7263069,-1.0007619,0.079136364,0.48617503,-0.38252938,1.2793173,0.2621719,-0.7185021,-1.048104,1.1010315,0.59191126,0.63942796,-0.34397697,-0.20429116,2.0470147,-0.8847142,-0.09835492,-1.2622951,0.6449653,-1.3987042,-0.3507178,-0.029394416,-0.5873967,-0.32445884,1.1036772
prkacb,1.4562178,1.9959414,-2.8376405,-0.23377779,-0.12729141,2.0835211,-2.9223058,1.2078161,1.6604574,1.5213265,-0.14593124,0.18993312,-1.7550182,0.3290889,0.44702867,0.2962681,-1.2480127,-0.23690026,0.766574,-2.1579525,-1.4185952,-0.7960504,-0.9342114,-0.15141915,-0.5380115,-0.569744,0.27427548,-0.41407916,1.1715955,0.1062675,0.77261037,0.6292105,1.5878403,-1.5554018,0.06653346,0.17399263,-0.6260039,0.32335752,0.6936604,1.5940659,0.13411465,-2.68291,-0.5824297,0.37167037,0.31067067,0.11260619,-0.2990142,-0.45013344,-0.7146544,-1.637809,0.5571678,0.04275516,0.9938371,-2.3562694,0.36197722,0.6099414,-1.4684547,1.0105685,-0.27912253,-0.095249996,-0.6367085,0.2496303,0.75722045,-0.80059385,-0.95444304,-0.99880433,1.0715411,0.20953411,-0.3613177,0.7097472,0.66647536,1.7427158,0.24538128,-1.2095551,-1.2111328,-1.1956885,1.124929,-0.1392995,0.015535751,0.087008834,-0.40631068,-2.9894276,3.1703248,1.1647735,-0.4069718,-0.24046178,0.407239,-1.0178019,-0.9513602,1.0223255,-0.3543232,-0.85540897,1.6247244,-1.21327,-0.6846035,-0.26566923,-0.33061874,2.6229048,0.8588267,-1.4664252,0.8316498,0.66267496,0.21897858,0.66721845,0.23386453,-1.382556,-1.3889778,-1.5221155,1.058544,0.33556566,0.08781361,-0.7022797,0.05283995,-0.26628205,0.48926473,-0.15436473,0.89063185,-0.05407407,1.7082033,-0.6020364,-0.58222646,1.4384574,-0.020872727,2.74036,1.5488863,-0.19178016,1.026968,-0.9392744,0.39758384,0.025462788,1.308912,-0.5021615,0.5969833,0.22794677,-0.8163,0.79226464,-1.7310778,0.53975713,-1.7684083,-0.8999064,-0.79687345,0.17474602,-0.8767876,0.2961964,0.20559506,-0.5210577,-0.7715022,0.3938351,-0.6998512,-0.066465534,1.7323042,0.61276674,2.522361,0.5368915,-0.1731005,-0.9175433,-0.03000695,-0.007605888,-1.4628547,0.5282841,-1.5040683,0.5686073,0.5908781,1.1162136,-1.4084849,0.042126108,-1.011989,0.5154805,-2.5469048,1.0288407,1.5160406,-2.2495103,0.19634622,-0.85477656,0.28232804,0.7483577,-0.60371864,0.26181516,-0.32341155,-1.4480965,0.00012702117,-0.8494303,-0.94392014,1.0297607,-0.8308734,1.0346602,-0.8075897,-0.44776854,1.3706089,-1.7153364,0.92873055,-0.070061944,-0.79317665,-2.154918,-0.9727507,-0.64488345,-0.8332082,2.4797878,1.4251344,0.0062421784,0.4378762,0.32919803,0.011634556,-0.59249055,-2.0394492,0.7664437,-0.5377786,1.6773474,-2.1336884,-0.837332,0.605189,2.3243086,-0.47091994,0.09936614,0.97051334,-0.37278083,0.61067504,0.578072,-1.0264922,0.07467844,-0.07794221,0.28945044,-1.5489308e-05,0.1696261,-1.3134495,-1.8238577,2.3390114,0.4223196,1.356597,1.6285306,0.15094817,0.37838852,0.81551546,-1.202027,-0.5100001,3.7438214,1.5868356,0.36347282,0.65911895,0.64286196,-0.1022,-0.2647193,0.89564216,0.6539915,2.5584722,0.45177165,-0.48137504,0.32962662,-0.82432175,-0.48242813,-0.8227749,-1.0000339,-2.0307658,-0.90115255,-1.0007591,0.48794636,1.2074306,0.4172335,-0.8666299,-0.022099616,-1.4430126,0.72802687,-0.025214754,-1.7711853,1.0773565,-0.34086606,0.14222929,-2.3923457,-0.68128073,0.78092164,-0.60661185,0.6985216,0.2666995,-0.28958407,-0.5593172,-0.049796827,0.6498692,1.117198,-0.64273465,-1.2674105,0.2667579,-1.294168,0.32976794,1.5960481,-1.2020046,1.0084171,-0.4096228,-2.3707306,0.64690995,-0.66309446,0.83902144,-0.18001758,-0.74746096,-0.09623593,-0.6617351,-0.5442428,2.1945915,-1.1997901,0.33249712,-0.9679285,0.8669025,-1.6567595,1.2624123,-1.9340426,0.74143034,-0.33423325,-0.36240104,0.69659007,1.0553024,0.6580243,1.8669288,-0.5605047,-0.41611683,0.7503077,0.16649272,0.7900952,-1.2550025,0.55996156,-1.4120624,-1.1750807,0.3328853,0.7889305,3.5425875,0.8093314,0.508421,-0.22365375,-1.6409866,0.61835927,0.18495001,-0.92746496,-2.873647,1.9268376,0.32449222,-1.2534883,-0.3823791,0.6351155,-0.58878297,1.8091642,-0.09913572,-2.6507914,-0.6317762,-0.2545522,-0.7701217,0.65615463,-0.041225813,2.0054722,0.46191856,1.2620372,0.68518466,1.5603491,1.0918019,0.23201148,-0.6238961,1.6535945,-0.7978551,-1.436801,-0.67025083,-0.67857397,-2.5357714,0.5031339,0.6053401,0.1832923,0.07931091,-0.24705657,-0.9077917,-0.73584443,0.6659916,1.1621304,-0.19181491,-2.910426,-0.92370284,-1.2793022,-0.85465133,1.2165552,-1.0647792,0.6721851,-0.3980433,2.7030265,-0.14573781,-0.38374943,-0.73901856,0.39024362,0.12122728,-2.2923071,0.4997043,0.16012295,0.64147013,-0.106311075,-0.049674932,-0.4098505,-0.19807877,2.201406,0.752041,1.8259724,-1.4561639,-0.4615859,1.3011619,-1.0471927,-0.58374476,0.51086897,-0.66750675,1.3971967,0.09062444,1.3572211,-1.0513688,-0.7059093,-0.7823837,0.17613536,2.3577626,0.20146053,2.5162997,0.12614593,0.91026396,-0.025383903,-0.4811282,-0.5198291,-2.1223078,1.6613249,0.36908138,-1.7954999,-0.7555499,-1.885188,-0.8472524,-0.33857152,0.08148688,-0.5613919,-1.1391966,-0.21371838,-1.2075044,-1.1855564,1.2785902,1.2152913,-0.81542206,-0.24516714,0.42027265,1.9467605,0.65187377,0.2029866,-2.6656058,2.6399891,-1.6218497,0.26320785,-0.14509742,-1.6194592,-0.0002514081,2.2252824,0.4327073,0.76257414,0.34626696,-1.0874538,0.5999287,0.29524645,-1.7782223,-0.9676218,-2.816119,0.8538669,1.0601617,-0.06587662,-0.33103764,0.8757788,1.2188106,-0.6196639,1.295708,-0.40951267,-0.09027759,-0.514894,-0.34945253,-0.6138105,-2.3699877,-0.4149681,0.3158969,-0.44055238,-0.29264033,-1.3895572,-0.7422141,0.09783033,-0.4709958,-0.5026893,0.0053533786,-0.027862249,0.36929536,1.2970948,-0.2155873,-1.02014,0.4925798,1.9823675,0.4866733,0.18959267,0.55371,1.247782,0.8472972,-0.37118667,-0.02299747,0.010391633,0.41860008,1.2637846,1.235627,2.8552053,0.2942548,1.6170868,0.46854955,1.1354893,0.606633,-0.14206715,0.7432878,0.21766475,0.7663729,-0.5081366,-0.38857096,1.5898598,0.0076809158,0.023691121
prkaca,-0.8391965,-0.4930006,1.3820455,-0.51732725,-0.9844165,1.039221,0.2370734,0.28266737,0.34001124,0.16649492,0.66034883,-0.63739353,0.049316723,0.7004882,-0.23753667,0.48314813,0.4090065,1.7472538,-1.0208979,0.43803003,1.5487608,1.1892354,0.48287877,-0.43220177,-0.6685834,-0.6010527,0.7917305,-2.5768113,-0.09442837,0.9253093,1.764243,0.1873484,-0.27024177,-0.9980493,0.60134286,1.4711956,0.093021795,-1.7257721,0.2856048,0.77619076,0.8224333,1.3763486,-0.9961478,-0.021385614,0.3258684,-0.5045466,-2.5561538,0.80221313,-0.5614194,-0.35186696,-0.23378392,-0.47953603,0.14447619,-3.031253,-0.91517967,-0.8854614,-1.0698248,0.61283845,-0.7999371,0.119369805,-0.121869154,-0.12624024,-0.9915373,-0.6856117,-0.9070056,0.5705924,-1.3252732,1.5055463,0.60464585,-0.18205526,0.2515036,0.5711124,0.44673094,0.5473961,-0.38196182,-0.33534068,0.44154477,-1.8881308,0.09637316,0.015569703,0.75524116,1.1293766,-1.0755137,1.2540512,0.55437195,-2.0363586,1.2537253,1.2846384,0.14297163,-1.062566,1.3268001,1.2006824,-0.855,-0.1284695,0.058924127,0.5251221,1.3634721,-2.5102181,0.051272452,0.31697598,0.02357501,-1.7975082,0.7615067,-0.8034987,-0.77749467,-0.33153528,-1.3582981,1.0542971,-1.1811075,-0.9324787,2.3261955,1.043337,0.51089245,0.37775072,-1.3594569,2.1521075,-1.1986434,-0.8955648,0.75954163,0.06445064,-2.088099,0.7022649,-2.1101122,-1.8794484,0.46222746,-1.6933013,-0.17539293,0.101977125,-0.8847653,-1.377823,0.85844994,-1.2189018,-0.3388092,2.2263181,-0.53585416,-0.25060987,-0.3192356,-1.5692496,-0.2659194,1.0762316,0.7414868,-1.6742686,-0.56662804,0.29335374,-0.46841943,-0.3018133,-0.31423932,1.8394047,-0.54188365,0.24265373,0.8454376,0.8462677,-1.4354534,0.61156636,2.4360135,-2.7528868,-1.6943998,0.08032224,1.2876464,-0.02460872,-1.0687393,2.124121,0.6532603,1.7920853,-0.49087936,0.25629652,-1.4903632,-0.77457756,-1.126751,-1.1273015,3.1950245,2.3010077,-0.72797245,-0.20941217,0.21356288,0.32627568,-1.1297948,1.0819889,0.087831765,1.8356192,2.8278692,0.104158476,0.22450115,-0.09923328,-0.699427,0.38291022,2.5405576,-1.2623636,-0.9573775,0.20421606,-0.27917597,-0.38666236,-0.5794919,-1.0806068,-0.45916602,-1.6477247,0.62393665,0.51038295,-1.1140962,-1.1035254,1.0856918,-0.9890501,-0.6597334,0.2553605,0.22368757,1.5957676,-0.67184734,0.85775495,-3.0780277,-2.150082,1.140658,0.9520487,0.13511765,-0.312359,0.12569468,-0.08196616,-0.92474204,-0.10971097,-0.78645134,1.1437064,1.7197161,0.5198256,-0.47796562,1.0519155,0.398558,0.119658604,1.3330258,-0.6810752,-0.28074598,0.20763026,-1.2659343,-0.9517622,-1.7401141,0.59113073,0.08556564,0.9484038,0.014642172,0.44576085,0.6360343,-2.1360576,0.8383855,-0.97210926,0.8059026,-0.26519194,0.1583033,-0.39067358,-0.69091505,0.20458682,-1.1788046,-0.41398713,1.227409,0.8055927,1.722539,-0.12488722,-0.029150605,1.312646,1.3031288,0.8513762,-0.04536502,-0.6945399,0.9737701,0.12596531,-1.6904058,-0.6129409,0.62851155,0.32837695,-2.023804,0.1445481,0.940494,1.5120424,-1.5747759,0.6493132,-0.9445711,0.9055362,0.24810357,0.29780668,-0.24907473,-2.2900338,-0.0005778373,-1.125578,1.9171299,1.7522067,-0.5062344,-0.028398737,-1.5099616,1.8352216,1.1036289,-0.6410795,-2.2811055,1.5185033,0.23016138,0.01013044,0.20655519,-2.1583707,-0.9501103,0.74030983,0.9523483,-0.9351813,1.3092008,0.24432471,0.50800663,-0.84204227,-3.6448572,0.30775112,1.4431928,0.60487866,0.32021475,-0.15622735,1.9376305,1.3709613,1.5406227,-0.48600298,0.80155766,-0.56311965,-0.78708833,1.8599598,1.3700151,1.3069081,-0.13281429,0.6206303,-1.6268402,1.8306168,-0.21444745,0.21442401,2.1927779,-0.34012175,0.012403031,0.54786783,0.18557741,0.6495349,1.5134133,-2.102277,-1.5135686,1.0388209,1.2773614,-0.50793684,0.16983297,0.64744854,-1.5332142,-0.88345265,0.27251294,1.0002736,-1.7034965,-0.5308865,0.09276915,0.012667512,-1.0362608,-0.37544525,1.5794475,0.7269216,-0.7201611,1.7771446,-1.1459306,-1.4110967,0.764735,-0.22841495,0.6111868,-0.66898674,0.018563168,-0.8624951,-0.32168317,-0.22120214,0.47338983,-0.2763711,-1.6885846,1.0668464,0.75686395,-0.13041018,-0.35147175,1.1734582,-0.43575868,-1.8603725,-0.6440434,-0.5354996,-0.43773156,1.3597465,-1.2726707,0.1852187,0.53241163,1.0990978,1.4616551,0.5721056,1.1624807,-1.2282438,1.1212765,0.6753661,-0.50662184,-1.0789921,0.9034765,-2.361534,2.7533734,-0.7728895,-0.6410206,-0.30590817,-1.0199181,-2.9530616,0.26834545,0.20529287,0.44614774,1.3833567,0.26658142,1.5458261,-1.4496253,0.52269256,-2.1509414,-0.09033177,-0.91308844,0.5804421,0.050910372,-1.506622,-1.0136052,0.9633236,1.4883568,0.97143805,-1.7460333,-1.3799818,1.2849088,0.39621013,2.0437882,-0.56213266,-1.0419109,0.19729188,0.96264833,0.88583356,-1.0154837,0.5566239,0.7696229,-1.1089725,0.3932954,0.65676427,-1.3813704,-0.83908015,1.7988557,-0.38114747,1.3323408,0.1128223,0.17084755,-0.5378159,0.9142323,1.4172896,-0.045020662,-0.0777767,0.117535874,-1.1086035,0.06415014,1.4947867,1.035586,0.050245304,-0.07638499,-2.196586,1.1107025,-2.3965511,-1.157784,2.257875,1.422633,-0.16045243,-0.89322835,1.5225217,1.6657593,1.0274899,0.5247472,-1.0110909,2.3374593,1.0843825,-0.9157627,-1.655306,0.038643774,-0.050399378,-0.99143314,-2.2836123,0.22079326,0.894828,0.52872586,0.07699486,-1.3241123,-0.26466942,0.40644136,0.68319684,-0.84939003,-0.82602066,-1.4631373,0.13751577,-0.7798876,1.6893381,-0.61053216,0.5047682,1.5421531,1.6558148,-1.46975,2.1242049,1.4501622,1.017598,1.8858042,1.1531727,0.082881615,-1.3034245,0.92100656,1.8633242,0.016562825,-1.5589802,-1.143705,0.0049557467,-0.19386035,-1.6210084,-0.104720004,-0.5597927,-1.0072519,-0.38546038,-0.82394934,-0.5079857,-1.7516198,-1.8597794
ppp2r5c,0.44189307,-0.58280855,0.43233547,1.5540947,0.06292518,-0.66064674,0.40460056,2.253723,-0.5036801,-0.9700715,0.36363444,-0.81507653,0.54572374,-0.6788022,1.843295,1.9767412,-0.22381781,-1.072532,-0.52415943,-1.2969717,0.18753679,0.41237718,-0.1363257,-0.51878387,-0.96177036,-0.9311306,1.1993705,0.8240253,-0.65251905,-1.3689064,-0.25301075,0.8934079,0.5378022,-0.621768,-0.8608015,-1.1777573,0.62294614,0.44093043,0.77222675,-0.43974268,0.8467757,-0.22760266,0.21022949,-0.58163106,-0.6455525,-1.0597967,-1.8086488,-1.2910823,0.50828755,0.6602981,0.5706792,0.48833156,0.19780374,1.2127464,1.6270193,-0.27780697,0.44008964,0.053635564,-0.8114395,-1.1058519,-1.1954932,-0.7184188,-0.4598074,-0.09803617,0.76141006,0.36726886,-1.4386482,0.296887,0.8105664,-1.689044,1.8157645,-1.1275138,0.46302223,2.0370574,0.6155109,-3.390949,0.8420931,2.2331524,-0.38751218,-0.09719593,-0.054028515,-2.9441254,0.2491804,-2.028289,1.2476314,-0.30015785,0.8998052,1.1156435,-0.12817088,-0.29012126,-0.35266057,-1.324854,0.22910142,-0.87554944,-0.035362985,-0.945118,1.8089032,0.9266673,0.5642337,-0.5477734,-1.9697783,0.18281111,-2.020657,-0.8901055,-0.4345806,0.19091764,1.2743934,-1.6976455,1.8258306,-0.5578309,0.23936607,-0.68420655,0.4033778,-1.081628,0.6427241,-1.1649837,1.2583078,1.1209834,-0.13089897,-0.69682235,-2.5733683,0.7564891,-0.44446722,0.9604009,-0.22083485,-0.39806432,-0.042392414,-1.0845094,1.929584,-0.42664844,1.0962166,1.608391,0.1094055,0.9648822,0.77599704,-2.2849474,-1.3747036,0.6898827,1.3733578,-1.3807822,-0.115787536,0.470281,-0.587841,0.6711224,0.65702206,-1.5564291,-1.395263,0.7716785,0.6349034,-1.1538893,0.24667034,0.2395686,1.8506496,-0.3741216,1.4032735,-0.44778967,0.48432326,0.5410399,0.86993396,0.4273157,1.4825704,0.04823621,-0.4716969,-0.080858305,0.72894746,-0.90973246,1.6770864,-0.56027293,0.88115436,2.1896634,-1.0212307,-1.1380526,3.3117146,-0.3077162,1.6944904,0.9049427,-0.9872359,-0.74385524,-1.683634,1.5165385,-1.0523878,0.4527689,-1.6400465,3.8332562,-0.7424513,-0.20520753,0.66947925,-0.024097681,0.8945348,-0.24314621,-0.4824883,0.61366224,-0.35832423,1.9270808,-1.1902443,-0.86055434,1.350929,0.90892786,1.3284439,-1.3728393,1.3599776,-1.3461622,0.0119275795,1.7814169,1.2962235,-0.31396097,0.123395376,0.79757494,1.6184568,-0.5595118,0.08896993,-0.062097102,1.1786317,-0.70409274,-0.9973241,-0.30630514,-0.86331064,-0.39952853,-0.17510909,2.3166003,-0.042027656,-2.200822,1.2707771,1.4856862,-1.0661435,0.040546082,0.51028365,-0.39291877,1.9578168,1.9290714,1.6445917,-0.32252836,-1.68846,0.36557606,-1.8408982,2.1107175,1.2249291,-0.10071474,-0.4345038,-0.16846621,2.1403303,-0.80161923,1.3000497,-1.0309366,1.4573473,-0.8566485,0.0842894,-2.3458312,-0.37796244,0.006568247,0.27172646,-0.19513085,-1.222398,-2.956923,-0.35561863,1.1592832,1.3577828,0.27626106,-0.3909406,-0.819872,-0.9241723,0.80048263,0.26818684,-1.0979365,0.61443883,-0.23049736,-0.9497007,-0.47349858,-0.9008987,0.1882149,-0.17223161,0.5934489,1.2424282,-0.0779055,-1.6163739,0.19167249,-0.025907101,-0.8133378,-0.5958015,-3.4356284,1.0612124,0.6908588,1.3630522,-0.87989926,-1.2420447,-2.1765854,-1.4332572,0.35887963,-0.64502263,-0.56865495,0.569134,-1.0491337,0.39665142,-0.6808347,-1.1926016,0.8112994,-1.2029241,-0.8745056,-0.3245728,-1.2825152,-0.6119252,0.73669314,-1.7127397,1.6723751,-0.30173266,0.6812674,-0.8047041,0.052143767,0.6065865,0.36815816,0.19888555,0.2659832,-2.0263953,2.9982285,-1.2757199,-0.7402907,-0.18515678,-0.32726473,-0.4312786,0.44659638,0.62144387,-0.24001923,0.015241641,1.5794513,-0.78666884,-0.6963023,-1.9167194,1.0278437,0.414105,-0.8082782,0.16098028,1.8864118,-0.5960776,-0.76700824,1.0119197,0.9347847,-1.7205921,0.60812837,0.08502686,-0.43204287,-0.29821056,-0.538289,-0.6094681,0.18407848,0.8842921,-0.5451361,-1.1097004,0.30525818,-1.2779466,0.11211982,-0.4669853,-0.6499985,0.1285409,-0.10767398,-1.0142044,-0.59120995,-2.7274847,0.956771,1.7316887,-0.7464023,1.0107863,0.85259086,-0.4475701,-0.6515747,-1.4200984,0.6019253,1.4389921,0.7012759,-0.19132715,1.1281732,0.21211258,0.10616574,0.45835698,1.5693513,-2.5337625,-0.5937264,-0.39680922,2.2724073,-0.032061517,0.22415186,0.6813047,1.0896459,-1.2725754,0.6059709,-1.4914197,0.96715415,-0.33404613,1.2068963,-0.85631156,0.2268299,0.93662894,0.16795123,-0.8661254,0.5940375,-1.2646793,-1.3305475,-1.0668961,-2.5821857,-2.539229,-0.076952994,-2.2163277,-0.40748915,-1.3478094,-0.34799024,-1.5247648,-0.30947194,2.0761952,-0.91644853,0.16217326,0.058686286,1.5235513,0.9836816,-0.46188483,0.65381706,0.904677,0.5726229,-0.5012688,2.446248,0.49466175,-0.14958262,-0.37962678,0.58817977,-0.75558066,-1.0957725,-1.2533885,1.8614873,-0.19702205,1.3224865,0.6293799,-0.5033893,1.2102569,-0.66846734,0.10525068,-1.3205631,1.4452162,0.23991577,0.37830436,0.72069293,-1.7483344,1.4954268,-1.6810739,-1.7254877,2.2228234,-1.6563438,1.1372347,2.2375917,-1.0772533,0.85774213,-0.031030416,0.14332761,-1.1256548,0.51023704,-1.1692704,-0.97279,-0.9632166,0.6427367,0.3748389,1.287941,-3.3926427,0.48624626,0.5607843,-0.60312283,0.4589892,-1.0410879,0.098378785,1.3208101,0.9620572,1.5544423,1.032387,0.55488616,-0.3831641,0.009457886,2.0393229,1.2032079,-0.9679935,-1.1221815,-0.23073964,0.42911458,1.4998922,1.7857609,1.0560799,0.9146936,0.19912943,2.246496,-0.73880595,0.13761361,-0.17331797,-1.2742178,-0.77667516,0.03785002,-0.19503866,0.3229976,2.0445793,-1.3535981,-0.90619713,-0.79100376,0.6574647,0.8153492,-1.4535775,0.7049871,1.4458698,1.8744497,1.4840873,0.28094745,-0.8402156,0.5050371,-0.42092964,-0.6345609,0.9443924,-2.6432824,-0.5943793,-0.39193797
pik3cb,0.32491067,-0.6426153,-0.061884765,0.19542478,1.1735096,1.6824503,-0.40544948,-0.39273402,0.51372546,0.10613589,-0.8749277,-0.12596498,-1.0271388,-1.4941337,2.1968875,0.40839157,0.9112316,1.1541412,1.5580229,-0.5766365,-1.8397171,1.7023638,0.7222625,-1.9372991,-1.0508869,1.529036,0.18624629,2.17546,-0.58058226,1.1510861,1.4169039,1.8539736,-0.82811314,-0.057505388,-0.71691686,-0.5828875,-1.7501321,0.762749,-0.24858338,-0.7172049,1.3458948,-1.0704367,-1.389421,-1.4989111,0.012135454,-0.08201461,-1.9367777,0.35730442,0.5778298,-0.5096363,-0.3016634,-0.68547845,-0.9766547,-0.48365983,0.11907393,0.2092393,-0.67625195,-0.2264133,1.1417679,0.25486287,0.99311984,-2.5461671,-1.5909144,0.12624843,-1.3050946,1.6241127,-1.988721,0.3016704,0.762359,-0.21501847,-0.7795007,0.4860658,0.6842013,0.8718082,1.4254893,-3.2733636,-0.28783673,1.6005622,-0.41423735,0.6842396,1.3787208,0.53960073,-0.6583196,0.8175985,-1.1311399,-0.99387044,0.51631874,1.1435437,-0.49071243,0.17122589,-0.55954576,-0.67911196,-2.6366627,-2.512409,-1.671696,-1.4710774,0.19425939,0.7812609,0.663175,-0.09093934,-1.2889557,1.0310594,-1.4882544,1.804344,-1.0417073,-1.5552673,0.32514164,-0.90621287,0.5701138,1.5211931,-0.63501173,0.109596446,0.21000794,0.14407402,-0.59143496,1.1119196,0.69485193,0.85121465,-0.1008425,-0.33351576,0.65331316,0.8321076,-0.97652453,1.7754341,-0.6019003,-1.7007889,-0.95360297,0.9789639,0.51441526,-0.18327864,-1.4306114,-0.30145982,-0.65656996,1.228292,-1.5325809,-1.5348494,0.86690754,2.1609106,0.5280321,-0.14491719,1.1552806,-1.1353993,-1.9786121,0.08852105,1.7732639,1.1868603,0.471141,1.8379387,-0.92792267,-1.264814,-0.09179109,0.64446586,0.48327926,-0.3627991,0.3116465,0.4152698,-1.2609892,-0.471259,-0.31034687,-0.862308,1.232472,0.2883873,-1.0343754,-0.06443636,1.8265018,-0.21093827,-0.15518858,2.0985558,-1.6691494,1.036131,1.7637982,1.3743086,3.0146127,0.18510772,1.4312942,2.9133968,-0.8676516,0.005342566,0.21391375,-0.01610066,-0.9992733,1.3488626,-2.500553,-0.041892268,-0.7358015,1.1459504,0.4741596,-2.573375,1.0289164,-0.5406984,-0.15021886,-1.9988478,-0.64323044,-0.64506173,-1.5862955,-0.13896231,0.41484284,1.7789118,0.82396346,-0.31540105,-1.8679271,-0.37650236,0.25595796,1.760812,1.0854578,1.1121556,0.2811243,1.9000472,-0.92818767,-1.739225,1.0688835,0.3203333,1.2780852,0.366942,-0.66111165,1.1353935,0.4861175,-1.0132917,0.6324043,0.90850097,0.25761485,-0.15714356,-0.32881123,1.0275438,-0.83116454,0.17108633,1.6325395,0.13787326,0.5701681,2.8558059,1.8988392,1.459422,-0.27472243,2.378255,-1.2065172,0.7108388,-0.5200194,0.26087514,-0.26401347,0.7347724,-1.0987173,-0.34547347,1.6997046,-0.9907434,2.455699,-0.4300845,1.783891,-0.19008663,-1.8728971,1.9232064,-0.47868487,2.079346,-1.767645,-0.44298452,-0.45699453,1.5498153,-0.5186862,-0.18281063,0.6397618,-0.9537036,-0.19950804,-1.0608666,0.6128647,1.2745004,0.9294627,-1.3799106,0.098279275,-0.7766924,0.9722557,0.05223741,0.3366629,-1.233477,-1.7280953,0.27278256,0.43930814,0.72693145,1.3811941,-0.26785162,1.0354915,-0.82134974,1.8351892,0.023089567,1.3454522,-0.71900845,-1.372871,-2.127941,-1.2238824,0.34627283,-0.49258748,-0.76537436,0.5108721,-1.0958899,-1.221003,0.46991482,0.006169542,-0.6660525,0.83659184,1.2688591,2.1379898,-0.96054745,2.1569567,-1.320684,0.8921395,0.500452,0.7251037,0.27455923,0.1587684,0.83557564,0.7033206,-0.32818964,0.39900038,-0.19208932,-0.9840901,0.25844297,1.340082,-1.9750439,-0.2633198,0.022852005,-0.30836886,1.7307644,-0.3899469,-0.32664412,-0.4373338,-0.05526221,1.9564857,-0.8193206,-0.68845624,-0.16222619,-1.0663105,-0.7862921,0.1178037,-0.6031674,0.7156245,-0.23896503,-0.9881128,-2.3126652,0.10174981,0.39253002,-0.59492064,-2.0868208,0.10274484,-0.03835385,-0.31610414,1.5870534,-0.25722408,-1.9999994,0.40863538,-0.11594456,0.5375018,-0.5325317,-0.24135037,0.4071814,0.89162576,-0.08663904,0.8118423,0.27217934,-0.16649893,1.2882508,0.18909045,1.0478479,1.0939949,0.481082,-0.4835491,0.53330886,-1.1248006,0.0959784,0.93850106,1.9237224,0.6731042,0.22599106,-0.6899165,0.29096422,-0.48475924,-1.0797604,-0.0002834265,-0.54494435,-2.0089433,-1.423655,-0.31213027,-1.8381522,0.18995753,-0.024697393,0.12101559,1.2401359,-0.723669,-0.73936796,-0.6809534,1.3912617,0.19951192,-1.423388,0.6850235,-0.316924,1.0137131,0.27654457,-1.481533,0.15253508,-0.8019227,-1.8253211,-0.60889435,1.882016,-2.376727,0.9566355,-0.9653781,-2.421065,3.5843995,-0.117014386,-1.1572417,1.1196293,-0.350111,-1.2628496,1.3696985,-0.4269257,1.8589258,0.69328046,1.5538403,0.8663819,0.51043075,1.0682169,0.3006749,-1.3326067,1.2355593,-1.9012856,-1.3877873,1.3018006,-0.30496907,0.28387806,-0.5217996,0.15126678,-0.81183517,-1.6631485,-0.3754296,-1.1263839,0.47584352,-1.1750455,-1.6494157,1.2012881,1.2629077,-0.98905367,-1.02171,-0.40782586,-2.2804961,-0.07883345,0.042678725,0.37361807,-0.3885693,-0.5072297,-0.074253015,-0.564603,-0.3032187,1.3874358,0.004258132,0.8346804,-1.5089675,-0.31028035,-0.06708583,-0.739728,1.0437278,-1.056326,0.9604598,-0.7073715,1.125201,-1.4077003,1.2908536,-0.32557896,-0.8458047,0.39397204,-0.7124806,0.0863991,-1.228447,-0.061998814,-0.7979583,-0.601096,0.7526038,0.17334475,-0.6401516,0.129496,1.4810266,1.3741401,-0.6083147,0.58660626,-1.8410238,-0.8244734,-0.5641611,-0.13561554,1.0355252,0.71366173,2.1872356,-0.21430703,-0.8668816,1.9113451,0.6735163,-0.8790788,-1.2032577,-0.4563314,-0.6279582,-0.13375099,-0.30303818,0.6779129,-0.418846,-3.1421218,0.91605866,1.2419425,0.26510277,-1.5706685,-0.6911525,-0.603835,-2.4075592,0.2106107,-0.0507334,0.02626041,2.4587343,0.06270118
per1,-0.45805678,0.8355072,-0.24892539,1.5070989,1.9787498,0.86219025,-0.5127294,-0.66328377,0.13623822,-1.3119274,-0.7012646,1.0111337,0.25087312,-0.94586086,0.6360919,-0.5985786,0.27271497,1.3275855,-1.7338488,0.22645536,0.97328943,2.2642734,0.18308279,-0.8206852,-0.41774786,0.2448974,-1.6744356,-2.2446012,-1.1626631,0.7074887,0.4373293,-0.6221922,1.6548733,-1.1595317,1.4839648,0.01533665,0.5829954,-1.1079727,0.7902893,1.1566126,0.34933588,-0.5532147,-1.4329088,-0.44268957,-0.29273129,0.7862733,-0.8037502,0.40198302,0.15878384,-0.3026139,2.1382184,-0.7290577,-1.3758922,1.1431154,1.0160333,-0.858103,0.5291727,-0.94247407,-0.20775943,0.10020529,-0.4215307,-0.211782,-1.1160386,-0.54565877,0.65599144,0.87922245,-0.69047993,-0.64499944,1.9182061,-2.1084805,0.35694534,0.37379205,0.05765842,-1.3176322,-2.3406107,-0.32491684,1.0542964,0.15694503,-1.6152967,0.8674559,0.9460041,-1.8531995,-0.4203783,1.81505,0.4028893,1.7470297,-0.12015309,0.56495476,-0.45487922,0.40589035,-0.08959891,1.5959909,-0.82518154,-0.7955114,-1.6615106,1.8423933,2.1697264,-2.0199118,1.4371346,2.1608806,-2.2065828,1.2137243,0.08740624,1.2162397,1.7150837,-1.2611574,0.46288434,1.8282926,1.1151304,0.16495696,0.93306327,-1.5299162,-0.61941385,0.8270996,0.71191233,1.1856443,-0.3884538,-0.017318418,1.0450869,0.28721723,1.1221087,-0.40462795,-0.6378199,-0.04295409,-0.343318,0.02190783,-0.47763035,-0.5569745,-1.060593,-0.025005922,1.1098696,0.6491189,-2.8393922,-1.1682063,-0.24369994,-1.1688085,1.8333517,-1.9459713,-0.05666262,-2.4406147,0.68018764,-0.25387648,0.63370526,1.0507988,0.13985799,-0.58742803,1.4738495,0.7166076,1.820897,0.9885279,0.49754578,-0.3192061,-1.7171805,1.2647065,0.82507765,-2.8475318,-0.65136606,0.5921112,1.4917998,0.7098904,0.26967382,1.0469574,-1.5573599,-1.415681,-0.414145,0.9566732,-1.4337194,-2.4357297,-1.3314015,1.2455075,-0.6560696,1.5609,-1.9940213,0.3358742,0.12771633,1.041935,-1.8753548,0.24496436,1.3203695,3.3349154,0.93204844,-1.8096516,3.1803572,-0.53910375,0.57674617,0.6169382,1.9102767,0.8581354,-0.09356354,2.2717636,-0.2233294,-0.7361584,-0.081709564,-0.086441405,-0.16722967,-1.1179421,1.4702377,0.8487592,0.26254573,-0.079033464,-1.2010761,0.62648207,-1.3381093,-0.6306689,-0.33683753,-0.92936826,0.09443326,2.146291,-0.12983358,0.78483516,-0.49593803,-0.76622653,0.28814632,-2.6074014,-1.6156871,0.29625735,-1.2882867,0.41140425,-0.38630655,2.340271,-0.2515863,1.1797507,0.88570344,-1.0377431,0.21552026,-0.19348432,-0.9681088,0.16078897,-1.3897303,0.64699435,-0.61942506,0.5588231,0.37806603,0.28108275,-1.399805,-1.5665032,-1.7533511,-0.073447764,-0.090529524,-0.8349743,1.1910614,-2.0998375,-0.5345584,-0.4900367,-0.3309325,0.73610497,-0.07229922,2.3034084,0.00032910853,0.7866274,0.37083057,0.07846924,1.1755713,-0.21350755,0.5481408,0.2973997,-2.14561,-2.3403685,-1.0210017,-0.754975,-0.25803146,2.2555704,1.9938277,0.29409456,0.5570574,1.2539092,0.21995662,2.0239563,0.20164889,1.3475596,-0.5950998,0.022390883,0.3024311,-0.435526,0.17078355,-1.2926328,-0.26247838,0.11274017,0.13119198,-3.5500221,-0.6484113,1.0853916,0.13491638,0.7569362,-0.20703658,-0.42898726,2.1018608,0.037661724,-0.20717058,0.43524262,0.5627592,0.8610815,1.1163603,0.20594032,-0.6713888,1.7039026,0.60042495,-0.43214026,-0.818568,-0.2541338,-1.1600333,0.8553219,-1.9208593,2.4490185,-0.6486111,-1.4719486,-0.99403465,0.29651654,0.44147694,-0.12722248,-0.92149895,-0.98775023,0.79364985,-1.5754621,-2.4220433,-1.5050877,0.12028579,-0.7376447,0.300467,-1.8927011,0.27557868,1.1317887,-0.5693207,-1.7690667,1.6344932,0.4710245,-1.4122981,0.6893826,-0.2931869,0.27997985,-2.3322575,2.5581694,1.3067975,-0.261435,-0.74024636,-0.1754885,-1.3824303,0.50724894,-0.77542806,0.37645033,1.5388958,0.26755783,0.7379133,0.17007616,1.7921873,-1.6670129,-2.2962153,1.5558745,1.4608037,-0.23062976,0.6679716,0.20618182,-1.2104396,-1.4939284,1.7380677,1.0450182,0.23976281,0.37260467,1.4391874,-1.5829717,-1.6753318,0.7380553,1.6591107,-0.995581,2.5042155,1.645324,1.0098227,0.2083279,-0.73471737,0.8208886,-0.73538995,-1.3653942,-0.90355724,0.27102205,2.4309604,1.3439862,-1.1462109,0.22905053,-0.95218444,0.6238337,-0.012828572,0.38483134,0.31929561,0.019533627,-0.19984603,0.90598744,0.62458026,-1.257271,-0.71029437,-0.7152038,-0.8409103,0.39553398,0.7283025,0.40676257,1.2498733,-0.82140607,1.9119208,-1.415845,-0.052702256,-1.3465598,-1.2998106,0.7157539,-2.3095424,1.0240216,0.20360251,0.11855392,0.38863143,-0.9725753,-0.14338173,0.12612088,-0.3077207,-2.40556,-0.593545,0.22036573,0.049048338,0.84934944,-0.4283964,-0.624999,2.888043,0.94766146,-0.26988652,1.7072296,-1.7589644,-0.7231433,-0.4648967,-0.7630493,-0.103727736,0.42923844,1.4458011,-1.8728259,-2.3631372,-1.0554318,-0.40359873,-1.9687685,-1.6408931,-0.77267456,-0.85887736,1.6998893,-1.3360239,-0.5093963,-1.1533637,0.35636202,1.9296904,1.1921602,0.10694357,-0.5378537,0.87236017,0.9147559,0.46734208,0.586926,-0.7488572,-0.1667677,1.7153848,0.14572127,0.0903855,0.08467552,-0.2381775,-0.5113975,-1.179571,-1.5055962,-1.3065102,-0.16203304,-0.64408004,0.80177045,-0.43646762,-0.120605744,-0.5431891,1.1693712,0.09454651,0.92761064,-0.5630959,-0.18799609,1.9562817,0.45869055,-0.4222534,0.9581891,0.72515523,0.5248742,0.036913335,-0.22083189,-1.857334,1.1482782,1.2603527,-0.86015,-0.4094117,1.3081775,1.4593806,0.36378753,0.45983624,-0.7792577,-0.20034596,-0.4564796,1.0306768,-0.52244973,0.42258886,-0.9165207,0.2086225,2.8267457,0.08740567,-1.9716407,-0.53095144,-0.7628346,0.45132422,-0.29603788,-0.67503744,-0.2042453,0.17993914,-0.261566,-0.5019705,0.06744434,1.957312,-0.019949215
pdpk1,-0.04952217,-2.0279243,0.539331,1.5814188,-0.4724324,0.33211753,-0.7974427,-0.22988522,-2.2550492,0.38357267,1.3607788,-1.1819404,0.7556962,0.774023,0.34917808,-0.68617994,-0.05643438,1.6614044,-0.4187024,-2.084327,1.6757097,-0.43148735,-0.10974097,-0.14350453,-1.2656823,-1.7203856,-0.97980386,-0.30883282,-1.179791,1.3405576,-0.20316923,-0.49022126,-2.327421,0.83408535,0.2698765,-0.07421047,-2.6450434,1.964252,-0.614596,0.102893606,-0.19617483,0.9689181,1.5616361,0.10386683,-0.02992877,1.0784533,0.2073232,0.84563917,-0.9819648,0.096347466,0.5937392,-0.73063767,-0.8219973,-0.7250097,0.9255573,-1.6395235,0.08110558,-0.47041705,-0.025990495,1.8657715,-1.0048515,-0.18628009,-0.18837994,0.7489125,-1.1809788,0.1036278,-0.10914662,1.0110943,1.5106878,1.289729,-0.65306866,-1.1591935,-0.1294342,0.6792464,0.63714314,0.5987445,-0.22848937,1.8953376,-2.122306,1.854495,1.7035462,-0.4647583,-0.40722984,0.80639035,0.01640038,-1.5647777,1.219913,-0.48109886,-0.6055778,-0.79419637,-2.2454107,0.21642435,-0.6625391,1.5012054,-0.9722668,-0.27725658,-0.32076567,-1.9955477,1.4903592,0.1546622,-1.1016684,0.87981224,-1.5930525,2.139229,-0.25920516,1.1707764,1.669651,-0.9703546,-1.3456178,3.0315073,0.56614614,-0.08326576,-0.3336183,-0.84571105,-0.7125574,0.10978164,-1.0064248,0.018621327,0.54173917,-0.83799374,0.9519951,-0.96318203,-1.1385329,1.2167299,0.6833818,1.9139175,-0.7951062,-2.4258652,0.5171242,-0.2892985,0.25436026,-1.5043461,-2.1970859,1.0624173,-0.34462857,0.68231475,0.6898866,-1.5855995,0.64050376,0.6792855,-0.59591305,-0.81012726,-0.2545787,-2.6349177,-0.61114615,-2.4449608,0.12911324,1.1791037,-0.6179999,-0.6702895,-0.23262794,0.18285772,0.0036854863,2.0917327,2.421944,-0.43099225,0.45983136,0.06085329,-0.3719964,-0.89535433,0.7317965,2.2749283,-0.84192914,2.794688,-0.19547334,-0.6463517,-3.0894496,0.844806,0.622581,0.11938793,0.09162168,0.0538658,-2.7325678,0.45880297,1.4233307,2.1826138,0.2659359,-0.2990782,0.92476976,-0.5575346,1.8954662,-0.47884467,2.4341288,2.3883674,-1.4876158,0.28572005,0.4309554,-3.8581564,-1.429528,-0.3534529,2.1394217,0.56517744,-0.9220472,-0.9377359,-0.55637294,-2.0587347,-1.9308581,0.90235394,-3.3121662,0.40099606,-0.06851375,0.43396318,-1.4428061,0.74581003,0.68966496,0.0013480795,1.1579336,0.8616912,-1.1073252,0.14110528,0.35648978,-0.3402098,0.7662062,0.47072926,-0.39951536,-0.1753164,0.23964438,1.763365,-0.17671163,0.5742242,0.95973486,-0.26778126,-0.32925197,-0.37177527,0.93948317,-0.6257535,0.44354582,-1.2377189,0.12636666,-2.2012155,-0.6212218,1.9144993,-0.97488934,1.3051758,-0.08766097,-0.46324015,-1.7800335,1.1893789,0.2567351,-0.62288,1.2071524,0.22124773,0.6800493,-2.1985064,1.6040066,-0.8560831,0.6932669,-0.8895309,-0.33781314,-1.4804094,1.0732574,-0.03608459,0.08003738,-0.5161234,-1.5581266,-0.75945973,1.367907,0.40589193,-1.4324237,-0.093170814,0.519824,1.3926628,-1.3102555,0.39603686,1.5721555,0.15823312,-1.3811698,-0.5342677,-0.8597797,0.8952808,0.31325105,0.7876471,-0.27752873,-0.13088177,0.36990193,-0.28628007,1.599347,1.6330019,0.15459983,0.6970463,-0.4406004,1.7531598,0.035419352,-0.7511788,-0.4996507,-1.1509812,-1.7873795,0.69375706,1.107518,1.0489194,-0.8665209,-0.25937328,0.25059623,-1.59869,0.14926174,-0.0151770525,0.55338603,-1.0894884,0.73254246,-0.44780034,-0.26784006,0.61994946,0.04995049,-0.6424981,2.0954788,-0.11553176,0.41884598,-0.6684961,0.5638031,-0.82118255,-1.0422152,-1.3469454,0.50295556,0.19317482,-0.94859457,0.6444272,1.7624611,-0.81280357,-0.43265304,0.2337555,0.15426724,1.5648448,0.4418042,-2.9143586,0.7844337,-1.0517733,-1.615389,1.9771235,0.54547393,-1.2010233,0.43972808,0.051127303,1.0552707,1.5179349,-0.23689304,-1.2294257,0.29145876,1.0185863,1.5454985,-1.2438768,0.12747529,-1.1217549,-0.8504065,-0.069716334,0.4522577,1.6851823,-0.19138734,0.1440385,0.7300203,0.7132519,-2.0814848,-0.88775533,1.4972241,-1.2170475,1.0707594,2.7369964,2.0583289,1.8040872,0.19453155,-0.08112339,0.3522613,-2.1215672,-0.8278419,0.13933815,0.28459266,1.0842694,-2.4103475,-0.61912173,1.7614248,-1.2628031,-0.14064418,0.54558545,-1.1436236,-0.6502289,-0.25823438,1.6991735,0.26505056,1.4097495,2.0936675,-0.24236323,1.2054679,1.3358008,-1.8557836,1.1787165,-2.3833926,-1.8674593,-0.7619809,1.2558254,-0.37644216,0.24543178,1.5440873,-0.95307267,1.0250734,0.946761,0.60232776,-0.7209797,-0.021390945,1.9492931,0.99276066,-0.5496875,-2.826085,-0.015293533,-1.4081632,-0.0059868805,0.8626177,0.25947732,-0.5962581,-1.8606974,-0.017175384,-1.02009,-0.74173665,1.7638463,1.3822927,0.21800485,0.21191736,0.9150879,1.932103,-0.98890704,2.8734498,-0.27499232,2.8594725,1.4152938,1.1463854,0.04203036,-1.0890043,-0.18321195,0.052174367,-0.40410265,-0.62021965,1.4898185,0.66169935,-0.24536937,0.97858566,1.3159474,-0.047195647,0.2037517,-0.70196563,1.2055659,-1.1194824,0.7613271,0.83038354,-0.28892657,2.3293352,-0.5938932,-0.7302327,-0.4000874,-1.7477423,0.8082329,-0.4556731,1.9874936,-1.3715934,-1.6368673,-1.8141167,1.5233645,1.085638,-0.5034789,-0.13105959,0.63282895,-0.2710407,-0.016688012,0.4332011,0.84529907,-2.324291,-0.22792375,0.54735214,0.03294204,-0.037291925,0.13971296,0.5278795,0.64711624,-0.6492737,1.1891972,1.8556194,1.2329652,0.17078634,-0.45319673,0.295086,0.38248715,0.98740345,-0.10148303,-1.5460293,-0.7806401,1.323088,0.6134298,-1.3396254,0.022478836,1.894381,-0.07907269,-1.8280518,0.5489561,-0.13465276,-0.48803926,1.1064476,-0.23403522,0.8751118,-2.284076,-0.8251207,-0.44070998,-1.0421914,-2.562338,-2.1850336,0.051611602,0.34252134,-1.0971377,-0.81093174,-0.32935873,-0.62326455,-0.7604249,0.6863407,1.0101295,1.0043845,-1.034471
hspa5,-1.4474727,-0.4720931,0.36927867,-0.8274698,0.46342543,1.7273695,-1.5848397,-0.4245229,-0.71751916,-1.7216502,-0.24427125,-2.212695,1.0747914,-0.8634516,0.37003598,0.96292573,0.66802645,-1.0684589,-0.76208043,-1.8265479,-1.2144027,0.8553834,0.7568634,0.7088148,-1.2097554,-0.27363506,-0.26515484,-1.83755,0.19324374,2.7588296,-0.17050673,-1.586947,0.82869476,-0.55011284,0.9157886,-1.681878,-0.30128032,0.12363676,-0.23456676,-1.9897811,0.27951333,0.059571605,0.85565895,-0.72336453,0.46936718,0.93147564,1.4619336,1.3905749,0.7119738,-0.62839603,-1.3552101,-1.2163115,0.5890152,2.4255338,0.12035702,-1.3271102,-1.7296455,1.7286415,0.02092775,1.2015427,-2.2248263,1.0116752,-1.9326576,1.5023968,-1.490516,-0.8718137,0.5497419,0.5891589,0.51397336,-0.4397077,1.2631645,-1.7757695,2.051146,0.5489718,0.79835516,3.497061,-0.10169734,1.3102133,-0.46456888,2.7897232,0.8377567,0.92099255,-0.35224226,0.051446732,1.0534924,1.5701838,-0.68075746,-0.8455817,-0.0049637617,1.5379237,-0.5084026,0.33528304,-0.9779149,0.57706124,0.07447172,-0.29293516,0.06622549,-1.3643446,-1.3010077,-1.4601212,0.74061835,0.32048824,0.36350164,-0.531307,0.23362926,-1.1043249,0.7014803,0.58936495,0.002164257,0.3327743,0.98627746,-0.084561914,-0.22374393,2.0016837,0.19435126,-1.4218285,-0.57851976,0.7852045,1.4112928,-0.63669574,-0.18447345,1.2939014,0.28084314,-1.2651492,0.05030831,-0.6963315,1.1164291,1.8500116,-0.542965,0.36627004,-0.43483028,-1.1896613,-1.0962586,0.840223,-0.10955567,0.4979786,-0.66616607,0.4401915,0.22194533,-1.3876369,0.40402338,-1.3721845,-2.2074504,0.19666336,0.03327194,-0.48968217,-2.7850692,1.9954758,1.8260641,-1.7985432,-0.2308994,1.075973,0.9292499,2.070481,0.73993075,-0.013734746,1.2070069,1.5551143,0.0768767,0.85912734,-0.3170899,-0.68530786,-1.7611275,-1.0973521,1.3473346,-0.48011577,-1.008473,0.44802445,0.46490034,1.0310906,-0.64736575,0.61033213,1.2068651,-0.8951005,-1.1711951,0.93855095,-1.0132123,0.54406255,1.2071708,0.15999255,-0.027020685,-1.4155738,0.57682055,-0.1923328,1.677229,1.8113232,0.61353135,-0.2616923,0.29763287,1.2586596,0.34231868,-1.7541548,0.29165265,-0.35158876,-0.25317955,-0.16821744,-0.69485754,0.53375334,1.0736063,1.6278111,-0.2664796,1.0853211,-1.8220195,0.12872171,-1.1677284,-0.89728147,0.20313548,2.4521627,0.39144427,2.4640365,0.08305931,-1.9944187,0.20511864,0.84407264,-0.67219967,-0.6876297,-1.423929,-0.22471927,-0.53869724,0.761953,0.67727256,0.8058221,0.4394726,-0.2688837,0.39828172,-1.4214416,-0.57372046,0.64584243,-0.7504646,0.8858017,-0.009931562,-0.9071289,0.8804994,0.107312836,-0.21993306,1.4514264,-2.7514265,-0.06688087,-0.1064227,2.2138295,0.34611812,1.7236794,-0.04750448,1.6632688,-0.86121505,-0.1867119,0.23778287,0.45002872,0.12439959,0.8806494,0.36488432,-1.3204544,1.2387694,-0.30087572,-0.48685884,-0.74203897,-0.9228112,-0.30830827,0.9450942,0.9153116,-0.07213523,-2.7568533,-1.0238162,1.0895683,1.3601232,0.19232446,2.1634104,0.13114032,-0.044640258,0.20590071,-0.028356569,-0.00042958048,0.7020715,-1.3926287,-1.0860946,-0.40147084,0.21613944,-0.022459242,0.29155672,-0.20573132,1.2828716,2.111404,0.41864896,1.3495574,1.166007,0.09547045,-0.12718277,-1.0531224,-1.7348945,-0.9374586,1.4016798,0.79712826,-0.016110046,-0.6990708,0.15389784,-0.78603774,-0.5717656,-0.6906774,-0.08001032,-0.90790445,0.35088524,0.90930027,1.0449388,0.25073293,-1.7056446,-0.9979127,0.5173613,-0.6621069,1.0429707,0.10637893,-0.87193084,1.686111,0.263619,1.0409079,-0.008029205,-1.9440559,-0.042069994,0.7573457,0.84732914,-0.56435627,-0.3897369,0.44994903,1.1790286,-0.6283351,-0.101527765,-0.55626416,0.59397715,-0.285503,0.8330619,1.0607272,-2.7840183,1.0850309,2.4264066,-0.113861315,-0.58572215,0.85852987,-0.62191176,1.1443834,1.2192606,0.21624076,0.50819623,1.087629,0.4902942,0.93523115,0.97759724,1.6239871,2.3050425,-0.10340408,-0.2501613,-0.41731456,-0.522648,0.34851342,-1.4557705,-0.79039615,-1.1154411,-1.147845,-1.2569153,2.7650464,-0.6027645,0.005288857,0.49417186,-1.8683629,1.4518307,0.9698767,0.22558188,-0.7201234,0.10355609,2.5608494,-0.1839784,-0.76155037,1.9183531,1.2599014,-0.5151587,1.4740309,-1.1227223,-0.69051254,1.1192662,0.53924114,-0.45910484,1.3228546,-2.232453,-1.0482914,0.7900344,-2.1113672,1.3804518,-1.4923202,-0.091897614,-0.45243126,-1.1384683,1.6342415,-1.3406006,-1.2941647,0.53575146,0.6390846,1.9885594,0.86041206,-0.13968201,0.45027465,-0.30665854,0.1375616,-0.6273912,-0.124585524,-0.6104112,-1.5871994,-0.6681781,-0.73184186,-0.805012,-0.9604556,-0.2526418,0.82155764,0.93558764,-0.24040772,-1.2188538,0.71027726,-0.06571768,1.2519916,-0.6341428,0.7385638,0.08098454,0.48779404,0.77857625,0.19053116,-0.5436549,0.30279857,-1.3452017,1.1106551,-0.373114,-0.6029006,-1.3855038,-0.92891127,-1.8546976,-2.0844467,1.1201239,-2.8138404,-0.112591766,0.49105802,0.23544091,0.54273176,-0.93193734,-1.9521655,2.3162205,0.5217371,0.7683219,0.93799734,-0.91817385,0.4918067,0.55256814,-0.17832504,-1.6940099,-0.48442033,-0.54745686,0.78272176,0.44901365,0.20607755,2.8217914,-0.33292085,-1.4035549,0.67687523,-1.1074333,0.159852,1.2394419,2.2456348,1.909062,-1.0746622,-0.82720506,-3.0618894,0.8651968,-0.27870178,-2.708728,-0.60737914,-0.5470495,-1.3573984,0.6266968,0.92567134,-1.1677752,-1.4741243,2.0652664,-1.602837,-1.8081338,0.2518176,0.7825924,0.870884,1.0021662,-0.442944,0.7798938,-1.6369871,-1.9341804,0.42323497,0.36095247,-0.34862596,-0.21411124,0.18325232,-1.6374027,0.38323703,-0.119513325,0.41680235,-2.5865405,-1.0120401,-0.86390746,-0.43982908,-0.9437579,0.7033466,-1.1628716,1.141848,-1.489467,-0.7363131,-1.8619726,-0.7315642,-1.2913866,-0.9088586,-0.26897457,-0.64317745
mapkap1,0.093125746,0.37963355,0.8322141,0.41834685,-1.0793403,-0.032652076,0.49636406,1.4177759,-1.3428321,-1.8541448,1.9234717,-0.9283392,0.904788,1.4214009,0.43083405,-1.1208323,0.49299902,1.160686,-1.3425351,-1.6656694,0.08921654,0.39620125,0.97814626,-2.7473333,0.2852004,-0.57692283,1.8997821,0.33640125,-0.7918143,-0.8830697,0.43460956,-0.4754742,-0.08556619,-0.86759853,-1.3292735,-1.4877287,-1.9122716,1.4844759,-0.7741,-0.5300103,-0.20469892,-0.26847163,0.61167276,-0.14671017,-0.95887864,1.2580271,-1.8983903,-0.0523323,-1.2906233,-0.23487726,-1.5113177,-0.88023657,-0.41888124,-0.3363283,1.0740998,-0.23269534,1.9816905,-0.7655756,0.3699136,-0.02037648,-0.5237004,0.28747013,-0.77155566,0.83322525,0.8513575,-0.7060704,-2.4565825,-0.89911914,1.1614532,0.95205367,0.12852065,1.030136,0.7940541,0.8493965,1.7712874,-0.11604731,0.13018422,0.61638886,-0.16506374,-0.5887211,-1.2821462,0.24103335,-0.4730429,1.1401078,1.2874662,-3.4223711,-0.64042497,-1.3025843,-0.38336712,-0.031141719,0.55564886,0.7210063,-0.81499714,-2.6443357,-3.0224924,0.73682296,-1.381825,0.50352174,1.8947531,-0.7628116,0.10163546,-2.0373843,0.041698862,-1.7399064,-0.65124696,-0.052860856,-0.4396832,-0.83847713,1.2658652,0.33485577,0.57291156,-0.8130711,-0.85340345,0.2551973,-1.1385527,0.036633994,1.289173,0.07033291,-1.9433386,-0.94258595,-2.6788795,0.9314485,0.5120492,-1.0657619,-2.1162233,0.33781692,-1.1602641,-1.6539634,-0.21416798,0.3379231,-2.1730478,2.2765114,0.63951534,-1.6127039,-0.4935812,-0.8278414,-0.55866927,-0.12573344,-0.9721611,-1.6847081,1.284426,-1.0225974,-0.9796268,0.6052926,-1.1201998,-0.17403765,-0.07827089,0.42574424,0.37364694,0.7370287,1.2043824,1.741455,-1.0769264,0.04902749,2.2124448,0.1652039,-0.5767997,-0.32620898,-0.45056987,-1.2580788,2.0471241,-0.3941134,1.527305,-1.2473646,-0.9588585,-0.031371027,-0.5119843,0.6468946,-2.2266886,0.60148895,0.25405282,3.4304144,0.07217436,0.83706844,1.2559338,1.968198,-0.723103,-0.1965611,-0.48197535,-0.5967919,-0.74527556,0.21522667,-1.3457991,2.2236967,-0.0863761,-0.044279877,-0.91813374,-3.2568452,1.2838199,-0.28579158,0.08763499,0.5094032,-1.2997063,0.11064548,-1.6456542,0.5590626,-0.31985316,2.0491686,-0.22621818,-0.78047216,-0.81514937,0.7741288,-2.615503,2.3582559,1.8494064,-0.9578717,0.9305602,1.6167735,1.0394769,-1.869234,2.2311192,-0.080706485,1.2388549,1.2760222,0.61002105,0.7535683,1.6125737,1.9217308,0.4638717,1.9645064,0.34961954,-1.031089,-0.50876623,-0.06458685,-0.68946433,1.0120856,0.03282729,0.68078846,0.10192974,-0.068955034,0.28700522,-0.042773288,-0.02940818,0.15989526,-0.46355873,-0.16273253,1.8773025,-0.5665953,0.7733847,0.545192,2.0110748,-1.699106,0.39899528,-0.24770617,-0.39693114,-0.0033469219,0.6902279,-0.7577959,1.0428967,-0.9920219,0.45242217,1.6838958,-1.7003233,0.40449396,-0.10136187,0.0052150674,1.7035205,-0.6504727,0.1576724,1.8608375,-0.3705829,0.500199,0.9652507,0.4098235,1.9126486,-2.2474802,-0.39404464,-0.66489387,-0.22414112,-0.32336116,0.42415228,-0.8586793,0.8777088,-1.5213771,0.38906276,0.326533,-0.16559781,2.1963696,1.4949605,0.7033415,0.5536212,0.19467574,-0.12571216,0.3439317,-2.0995247,0.08222161,-2.024643,-0.376379,-1.3666543,-0.17741318,1.3621994,-0.42474228,-0.9197557,-0.5843974,-0.99836814,-1.4303522,1.096345,-0.46530867,-0.47132272,-1.4039459,-0.21840449,-0.18289465,0.15313262,1.7586006,0.9571174,-1.0985616,1.9029423,-0.9895444,0.6023267,-0.8300315,2.6094592,0.37051108,-0.4813547,-0.3876773,-1.1439129,-0.8020189,-0.21146597,-0.18695281,-1.7713165,0.6648961,1.1341889,1.2787894,-0.1643791,-0.39787158,-0.1097541,1.4607532,0.13331532,0.16868453,-1.5220962,-0.28654635,-0.062260885,1.054384,0.35269195,-0.1363988,-0.11824219,2.2008727,-1.6593564,-0.5373635,0.3619279,-2.0088236,0.8486072,-1.4057754,-0.1689463,0.9804246,-0.037282728,0.5619549,0.32997033,-0.10263595,-1.555791,0.84881014,-0.6960193,0.6314162,1.9499098,-0.43209597,-0.17896432,1.1463623,0.1768405,1.5726835,1.8056006,0.47934872,0.04585795,0.33661255,-0.093371786,-0.7860918,-0.39124367,-0.44234446,0.5114965,2.06308,0.027888957,-2.2302134,-0.028133057,-1.4412279,0.00011277194,0.37715846,-0.17976342,1.2011998,-0.085030414,-0.77527285,0.9484995,-0.79990315,2.5692377,0.27831006,0.5400947,-0.8269154,-1.7194911,1.3644814,-0.9669799,2.7182107,0.63046825,-0.6960899,-1.0405782,0.59984285,-0.7151963,2.059918,0.40078956,-1.2290936,-0.8886489,0.6165182,0.3286115,0.01730658,0.29667163,0.6245739,-0.9653173,0.06289518,0.9520146,-1.7500465,1.0426865,-0.099054866,2.1765559,0.5494191,-1.9029434,-1.2796396,0.09981797,0.05443271,1.0468192,3.1570141,0.33262086,1.5527344,-0.25161296,1.1907678,1.2805855,0.22071576,-1.9021615,-0.4656088,-1.4049003,2.0587084,-2.6242712,0.06570551,0.5588496,0.109021984,1.843591,2.2418733,-0.20640028,0.7230928,-1.7617254,-0.78375584,-1.0363739,-1.0322661,0.03997127,1.0739344,-0.35760018,1.6409769,0.9943069,1.0120399,1.6983953,1.7956498,-1.5988747,0.9124588,-1.1547695,0.8603874,0.83350354,-0.5731872,-1.0197513,-1.5787451,-2.007672,0.7420509,0.16655327,1.0728705,0.7032882,1.2801696,0.14622675,-2.5025744,0.7133193,-1.6247156,-0.6311024,1.0986679,1.6463294,-0.43988645,-0.069237635,0.15242429,1.4042336,0.031589042,0.6376633,0.15502472,-1.1507827,-0.20220827,0.58331496,0.4717707,-0.017157283,-0.5670232,-0.78743994,0.9642222,-1.5365531,-0.34007135,-0.83640873,-0.35218808,1.1267815,-0.278867,0.37470743,-0.30370942,0.88697994,-0.6164978,2.11347,-1.5130827,-0.010673651,-0.42672095,-0.4722698,2.4283276,-1.3088388,1.2779135,-0.803672,1.7629604,0.3601266,-0.11139425,-0.6003842,0.30837035,-1.2699407,0.037141457,0.21596128,0.3931686,0.5107593,-0.07303526
dvl3,-0.16989523,-1.0037693,1.7690382,-1.7293513,1.5664431,0.15598156,-1.1008279,1.1590104,-0.5277722,-1.6536976,3.284874,1.112302,-0.997765,1.0051643,0.83007884,-1.0876082,0.99518067,4.1086497,-0.7857659,-1.0883709,-1.6303489,0.68626595,1.636527,-1.6113635,-2.0031252,-1.0989846,0.09971706,-2.1458244,0.27718034,1.4232503,0.6806298,-0.9929376,-1.0404027,-0.3450403,-0.9095968,0.7586972,-2.1952894,-0.5174855,0.8259484,1.562641,-0.76313806,0.2488608,0.43498373,2.3104582,-1.253499,-0.07348307,-1.4626238,0.44357452,0.5628671,0.17731106,-0.44923773,-1.6251845,-0.2660706,0.28536868,1.4788105,-0.36420703,0.007963941,-0.9119972,-0.42203528,-1.5091553,-0.95500225,-0.08953245,1.3184872,-1.1665274,-0.26884568,1.3901304,-2.3422256,-0.4014739,-0.6299167,-0.9699042,1.4857478,-0.9036543,0.7829541,-0.99732333,1.739242,-1.1752719,-2.507278,-0.7091466,-1.8316798,-1.0201887,-1.0256121,0.7806563,0.17346467,-0.10370955,0.7921254,-0.6404281,-1.2963705,-1.1561929,-0.2747061,-0.93281984,0.95069635,-1.4280057,0.88589317,0.19887464,0.98119926,0.8952077,-0.19841804,0.7006056,0.78340554,-0.16995049,-0.28677318,1.6001884,-0.5435612,0.26800457,-1.0571836,-0.35231894,0.9024167,2.0808065,-1.3111213,-0.50139534,0.4555638,-0.62027085,1.4828063,1.5608218,-1.715315,1.2661643,0.81023705,0.59501815,-0.20392938,-0.49511784,-0.3740802,0.6024021,0.0017700333,0.6567748,-1.4200951,0.37792158,0.3433552,-0.83044404,1.5468669,1.6672055,0.25357178,-1.4742626,-0.3187435,0.12742884,-1.0712606,-1.0544194,0.0121451,-1.9153339,-0.9303533,-0.27490175,0.30019137,-0.013799347,-0.08915842,-0.30569765,1.5691673,-0.72438824,1.4450271,0.37032363,1.2737347,0.04753797,2.0105295,0.9120046,0.65896636,1.9982203,-0.67316574,-1.0636816,-2.2210484,-0.47069314,0.5811444,-1.0481362,-1.5400774,2.9846566,-1.2582085,0.4743363,1.713696,-0.38845578,-1.6341089,-0.25993204,-1.2694242,-1.077435,0.057872925,-0.9903304,0.46708807,1.4053137,-0.91021264,0.03285838,-1.2547299,0.9262559,0.6981022,2.7310996,0.32483175,0.5371358,0.7398009,-1.1536332,-0.09662021,-0.31532228,1.4411966,1.1017883,-0.21025482,0.5507601,1.4354869,-0.9483224,-0.71433556,-0.74832577,0.3402687,-0.49486756,0.99658275,1.0836991,0.2519562,0.22694805,-0.77466285,-0.007807411,-0.07197321,-1.5074545,0.010966313,1.3702338,1.3874494,0.6463171,-1.7119116,-0.016459676,2.2546732,1.6686535,-1.5715244,-0.23228407,-0.2226347,0.39578062,0.22083294,-1.208689,1.2869763,-0.6159146,-1.9339348,0.081737675,-0.29492334,-0.29326844,0.19480737,-1.0540609,-1.2394919,-0.01032058,-0.06715744,0.068623886,-1.3290877,1.6496453,0.47885704,0.43794876,1.5421417,0.6377678,-0.13745703,-0.15885262,1.4322013,-1.7901214,-0.55777794,-1.4372189,-1.3137951,-0.26323873,-0.36078045,-1.3652464,-1.4653652,-1.1135839,1.4239085,-0.008547485,-0.24001479,0.83826894,0.4314899,0.5359294,-0.58795905,0.52984,0.4490054,-2.4274952,-1.3938838,-0.02361996,1.5576111,0.014100873,0.43488595,-0.89822114,-1.6615335,0.3030823,-1.7988964,2.0013235,-0.5226134,-0.63968194,-0.59404343,0.67227244,0.33028358,-0.43069813,-1.0011369,-0.7288182,-1.0736895,-0.9838079,1.4756727,1.0554897,0.5183161,-0.28390858,0.4025996,-0.23799133,0.44229576,-0.48804235,1.6978427,-0.007703518,-0.85178304,-0.4757926,1.3847231,0.017847043,0.98805636,0.04289578,0.9560629,1.8787119,-0.37890774,1.8995895,-0.80861133,-0.42849728,0.8409758,-1.422793,-1.0474174,-0.46460247,1.4682646,-0.6641403,0.18428084,0.5052632,0.45611462,-1.7926047,-1.2016277,-0.10311762,0.5757635,-1.3690119,-0.2421314,-0.1616742,0.22310255,-0.28812268,1.8671066,0.15534335,0.57574254,-1.1276435,-0.5819314,-0.9259191,0.16904256,0.19645864,-0.40335044,0.069306485,-1.3375356,0.30828917,2.9047475,-1.5164212,-0.87075716,0.67313457,1.2052675,0.984187,-0.3894048,-1.5507289,1.3205708,-0.20304924,2.1824293,2.306893,2.2659538,-0.64149386,-0.5559193,1.0889834,-0.3125561,-0.15360811,-0.2665223,-0.7423476,1.8968744,0.43108037,-0.12881896,0.73866713,1.9600657,1.8734906,-2.1519597,-0.95163846,1.021413,-0.61222094,0.110672936,2.920689,2.3618288,1.1964158,0.9312384,1.1058824,0.102606766,-1.9753516,0.9017835,0.58461577,-0.7720886,-2.5151713,0.7043792,1.6951741,0.3005922,1.3684915,-0.1859265,-1.2301526,-0.22916679,1.7795193,-0.28595245,1.6015666,0.65722185,0.2716749,1.455848,-0.6279088,-2.855264,-0.57517624,-0.12543513,-1.280041,1.3251892,0.1651036,-0.012397683,0.899547,-0.063864574,-1.3251195,0.5638524,-0.5514905,0.57890946,0.4682806,-0.703055,-0.17223294,-0.29315808,-1.3399467,0.19193488,-0.109290674,0.38318026,-0.6694876,-1.2826787,1.2455802,0.90165377,-0.86076856,1.0534286,2.4062293,-2.1814125,-1.958552,1.6345878,1.3910592,-0.14052549,0.16207068,-0.86386627,1.9664062,-0.038795166,-1.1873778,-0.34129584,-1.2793494,0.47318196,-0.50375134,1.4287714,1.1618985,-3.2751968,-1.6228517,0.68241656,1.7277267,0.6881477,-1.1647291,-0.64651716,0.9568626,0.13761911,-1.5424207,0.71428895,-1.982886,-0.94124013,0.5476155,-0.8384719,0.6269276,0.6060019,0.60379463,-2.0788953,-0.2938382,-0.380662,-1.1011597,-2.0803752,2.7059028,0.2879367,-0.7458721,-0.41722172,0.57221425,0.3694319,-0.3553524,0.5793257,0.34666595,1.9958284,1.1317188,-0.49933484,-1.3518549,-0.4885001,-0.6145996,0.43235204,-0.08431651,1.0444654,1.024424,-0.19715379,-0.45963925,0.14128603,-0.18369465,-0.7826797,-1.1710465,1.049593,-0.72709316,-2.0920691,-0.56310683,0.83641326,-1.3560293,0.33236432,-1.2890189,0.68015504,0.57380176,-0.88389295,0.00998963,-1.1687741,0.07358949,1.6743736,0.09706222,1.5978338,-0.43400106,0.9189788,1.0025545,0.0961412,0.29468662,0.14229132,1.0214854,1.4858037,0.99920696,-3.0803466,-0.5526372,2.0849907,-1.001169,0.7293671,0.12701194,0.6103915,-1.7782705
notch1,-1.1699885,-0.108344704,-0.44845212,-0.054518815,1.5463636,-2.6248388,-0.24278434,-2.345714,-0.36500764,0.091738306,0.97372735,2.1582117,0.52884537,0.4591111,0.6121956,0.30926266,1.3174365,0.5485384,-0.35960555,-1.3438864,2.1704519,-0.44312945,0.6902768,0.5965064,0.64923316,-1.568121,-1.6902056,-1.7132087,1.1017524,1.9675308,-0.041869488,0.12204167,-0.35059318,0.14703862,-0.76256007,-1.4175702,1.0601418,-0.5000916,0.16769408,2.3495088,1.2463177,0.58680546,1.8598906,-0.084445074,0.84945774,0.28834572,-1.010046,-0.34797314,-1.6667384,-0.02420779,-0.70545644,-0.9369965,-0.18858218,-0.5649016,-0.16964285,1.3517597,1.4756175,-0.41270316,-1.0146425,-0.45533684,2.3953805,-1.0617697,-0.26905608,0.121358305,0.07852575,-0.50217944,-0.41797504,-1.591636,1.9076387,1.2421052,-0.26700464,-0.31000766,-0.6363649,0.07112373,-0.9290381,1.2290775,-0.60013086,0.8667737,0.171836,-0.43966153,-1.0847545,1.5886768,-0.59714705,0.9216033,-0.31536612,0.03946475,0.3541215,-1.0482302,-0.28901127,0.021215418,-0.562587,-0.5015176,2.2224429,0.12542722,-1.0264024,-0.38936406,0.82316685,-0.34004977,-0.29136676,0.52810454,-2.011477,0.22293448,-1.1785842,1.1005876,-0.50031126,1.0095212,0.46855927,-0.8116258,-2.2426877,-1.9148,1.8592619,0.7922099,0.24924743,-0.59934795,-0.16750382,-0.54930127,-0.852056,0.06847558,0.0253475,-0.044596914,-1.2051365,0.7795974,-2.284563,0.056234952,0.18399756,1.0400298,-0.007298758,-0.051521014,-2.0144913,-0.84863156,-0.59589785,-1.778755,-0.50019515,1.8513703,0.06485545,-1.2361829,1.5571419,-0.4560668,-0.47151464,-2.2748685,1.0442157,-1.1076884,0.5280933,-0.73221654,-0.7906177,-1.5018551,1.583234,0.45198494,1.3804747,-0.47657132,3.637671,-0.020664064,0.46478137,2.0493414,0.118372366,0.8532671,1.8261483,1.590906,0.81547916,-0.80796224,-0.24482206,-1.4284595,0.45327494,-0.5066404,1.7197286,-1.1444243,0.33478478,-0.28943163,0.6214222,-0.3912071,-0.47629791,-1.0834568,-2.5808625,-1.2535529,1.7892385,-0.7659881,-0.98919344,1.6240654,0.20608757,1.0229733,2.18998,-0.00838643,0.47776034,1.4984491,-1.70838,-1.7339112,1.6599026,0.10810162,-1.5847338,0.46116036,2.1474338,-0.6004012,-1.0873591,-0.28230378,0.4486036,-2.1064434,0.8703117,-0.63444906,0.80421907,1.5770072,-0.04041842,1.3462957,-0.9652129,0.5572427,-0.7904828,0.40607294,-1.248147,-0.1868808,-0.5704358,2.441957,0.07290026,-1.3947465,0.4833445,2.116292,0.99556804,-0.18922625,0.73742414,-1.2179391,0.80863845,1.7203035,-1.021176,-0.17817484,1.29393,0.9362292,-1.3759491,0.4043404,-0.17661914,-0.5365878,-1.0858366,-1.2196435,1.1353321,-1.2708485,1.824046,0.65683705,1.8029803,1.4275088,0.5170649,0.2472212,-1.116348,-0.05027574,0.61906725,-2.6073995,-1.1472814,0.95623744,-0.024468368,-0.064821675,0.21248305,-0.049738053,-0.4526143,1.0798609,3.0249548,1.6552545,-0.51491255,-0.26877126,0.7939106,-1.0030997,-2.936527,-1.4128238,-1.9792452,-0.79617065,1.0346669,0.17825978,1.1404141,-0.32831696,-3.0370424,0.065785274,-1.790557,1.194988,0.26134026,-0.6512753,-0.66721326,0.8437255,-1.1445581,-0.15204856,0.55752957,0.30819592,-1.7486286,-0.26204446,-0.34349895,-2.4422593,0.24443622,-0.058162697,-0.2372369,0.525899,-0.6433133,1.2102937,1.4589952,1.5014671,-0.18078047,0.40657857,-0.06711284,-0.82663566,-0.34697953,0.05574933,-1.8197618,0.7675658,-0.09573827,0.013581967,0.06708767,0.7663156,-0.0005700378,-0.06646428,-1.1807294,-1.384358,0.7318579,-0.6452723,-0.26695085,0.37971318,0.6062998,0.21636719,-0.20751482,-0.2513541,1.1615356,-1.2825098,-0.43260893,0.085702226,0.4098794,-0.6258842,-0.39021358,-0.94551665,1.7145023,2.0023563,-0.5518119,-2.1297305,1.4632449,-1.1480042,-0.9405667,1.3682991,-0.17590629,-0.06002513,-0.36332253,-0.99243623,-0.7665397,-0.407849,-0.8469602,2.0576372,-1.5146447,-0.92713094,-0.4238757,-0.20338774,-0.28025153,0.3517316,0.79150754,-0.6694693,-2.0864193,0.044673312,-1.3490523,0.42644998,0.508494,0.06098715,0.24225314,0.14553386,0.87394196,-1.9776162,1.1049055,0.12876755,0.14249972,-0.35491756,2.1026652,1.7207752,0.48558712,-1.4530135,2.0578651,-1.9628589,0.13344105,-0.41327733,0.13680126,0.066620424,2.0916371,0.9493598,-2.234864,-1.1021707,0.49057627,0.65014535,1.5448523,-0.7121815,0.28560957,0.30397925,0.29702514,0.057703335,0.470357,0.89840245,-0.38084325,3.7208533,-0.19141196,0.6202953,0.13647108,-0.93836576,-0.6456736,1.1177833,0.9446446,-1.5664746,0.19787852,-0.4849972,-0.60860044,-2.8252096,-0.25106996,1.5735105,0.3738311,0.87692267,0.06269114,1.217868,-1.3003845,1.0354267,-0.75623024,1.3382524,0.9117801,-0.43988892,-0.92529196,0.6910844,1.5607659,-0.20173265,1.8698468,-0.9052188,-0.67400587,0.15354127,-0.50782335,0.1917466,1.0617727,-0.7573585,1.2114676,-0.07904343,0.9816662,0.16827361,-2.8567805,-0.3822964,0.44132608,-1.6042886,0.04277457,0.86906147,-1.0400581,-0.4709671,1.4862353,-0.049840268,0.16182572,2.0318408,-2.1255105,-1.4932919,0.6093395,-1.4492629,0.88200283,0.34295177,-0.4904264,0.53337634,0.9942384,0.30862835,2.9709005,-1.669077,0.8137535,-0.3693885,0.85146075,0.42736,-2.8580816,0.99081475,0.7185489,-3.0086858,0.0823238,-1.5123029,1.1398098,-1.618303,0.49209034,0.8511793,2.715137,-0.054313842,-0.28424442,-0.381482,0.29039416,-2.6268277,1.1338352,0.036228146,0.0025872185,1.1564714,-1.187904,-0.21129161,-0.24109781,0.75137687,1.117235,0.43615294,1.1210966,-0.24446481,1.5115602,-2.4675264,-1.5948206,-1.7626374,0.7062591,-0.042567886,-0.07639811,1.5354788,-0.7776062,0.39412794,-0.14919797,1.650362,-0.55813545,-0.3641724,0.4229846,-0.03720808,-1.0788422,0.8865391,0.7625163,1.9495027,0.29361326,0.73404276,-0.6566981,0.6674359,1.4012706,-1.3245889,-0.81423306,0.29284906,0.67178094,0.12736526,-0.5483305,-0.14550233
egln1,2.093194,-0.33278552,-0.36191306,-0.07049497,-1.0969884,0.48919132,0.22836342,0.9320341,-0.92917824,1.8294309,0.96311146,-0.04038401,1.2075082,2.22984,1.2464631,-1.8817732,-0.090552494,-0.63815343,0.98426646,-0.58715713,0.50764465,-1.4856926,1.3064235,-0.6806311,-0.20038755,-0.5875577,0.41750598,1.1583354,-1.0028402,0.65528697,2.454307,1.9664887,-0.9987522,-0.63313663,-1.4930876,-0.46492374,-0.78159416,-0.05114383,-1.4928895,1.0534037,0.21287578,-0.24189164,-0.5287806,0.61921483,1.9293301,-0.22779159,-1.0789938,0.729702,-0.027237127,-0.59809774,0.24018823,0.528405,-0.6911394,-0.11347054,1.04615,0.033466686,-0.38386562,0.27231008,-0.2669712,0.3677845,-1.628386,-0.4069984,1.5408568,0.10028965,-0.48212,0.91937894,-2.0999846,1.5799892,0.8979929,-0.09779485,0.33339342,-0.57363135,1.1847478,-0.8244465,-0.0946019,1.296305,-0.09487931,-0.15960611,1.2640201,0.037355497,-1.1692808,-2.1173832,-2.1662574,1.0134943,0.77580404,-2.6004722,2.0216918,-0.2950521,0.665693,-0.7858487,-0.3204153,0.6389443,0.6434643,0.5058598,0.15134802,-0.0944567,0.5182265,-0.6491946,1.7477908,0.6517799,-1.1744463,-0.9793228,0.9423992,1.0602796,-0.4318627,-0.8951167,-0.6232217,0.033718426,2.091138,-0.95244396,1.6255883,0.74153805,-0.55457956,-1.1960065,-0.89229774,0.011063537,1.018686,0.9749052,-1.0696709,0.9176568,-1.5485765,0.3144331,1.4607222,-0.43278244,-1.3338867,-0.47195065,0.02529447,-0.22512572,-0.009263157,1.5864816,2.0090942,0.5847262,-0.65085894,1.7139362,-0.36815163,0.5241629,-0.04082575,-0.81253266,0.26105472,2.0073218,0.8170607,0.99037963,-1.5430355,0.7918456,-2.6740634,-2.3859093,0.1566455,-0.41760814,-0.26206335,1.2603425,0.6945065,1.3031029,0.95418346,-0.2157789,1.493767,0.13414614,-1.110125,-1.3183559,0.9823616,-1.2119088,-1.068255,2.1270292,0.8552717,-0.6849283,-0.5319397,0.32774502,-1.0865508,0.3942308,-0.90010077,0.814823,0.8886452,0.10442796,-1.2489971,-0.6116704,-1.6396282,-2.2425714,-0.8527868,0.85241514,0.5290127,-0.366238,1.0140599,1.6624966,0.84540206,1.3233796,0.23694755,1.2109448,-0.72168034,0.66764444,0.74531,-0.12460925,0.8470553,0.15644182,-1.5543799,-0.668046,-0.4030297,-1.6073483,-0.6822012,-2.5952086,-1.7838875,1.0989002,1.1450644,1.0715743,-1.6023526,0.03332991,0.44047618,0.9638854,0.21443944,-1.3055247,-1.7945334,-0.8827775,3.402415,0.56113994,-0.4661188,0.9863819,1.8365911,0.5354012,-1.9912113,-0.47855744,-1.5095677,1.5817107,-0.2628508,0.5277473,0.7714518,0.3824541,-0.7482136,0.92754424,-0.40231094,-0.9988217,-1.3315744,-0.18740086,-0.836649,-1.6739666,-0.48127595,1.3469536,0.50248253,-1.8129778,0.9096466,-0.52490664,0.9676717,-1.6817062,-0.095575385,0.5973376,0.6949706,-0.46704075,0.9977061,-0.7101686,1.3569629,-1.7046177,1.2983052,-0.83845425,0.8455045,-0.39491355,0.3035127,0.13897084,0.546207,0.22440633,2.3073578,0.5176349,-1.0500084,0.43669948,-1.0791571,1.3209063,-0.56066346,-1.0755261,-0.86674124,-0.23795414,0.9936554,0.281037,-0.44134516,1.7043835,-0.10936912,-0.2098092,0.7917872,0.5627917,1.2924473,-2.7244134,1.8927978,-1.3515793,-0.39353907,1.0101143,1.6768256,0.84906334,-0.8330561,0.8096317,-0.8368927,-1.5680879,-0.5217284,1.2217139,0.0687006,-0.15350966,1.2902218,0.05427286,0.8803663,-1.8623265,1.4995507,-0.21774845,-0.8606454,-0.624892,-0.73498696,-1.3118447,-0.30264986,-0.11637625,-2.393679,-0.45397347,-0.82548684,-0.2946552,-0.31244132,-1.7418723,-1.5807472,-0.2549299,0.9802352,-0.6564392,-0.42831078,2.1978147,0.18919638,-0.5468493,1.1012099,1.2316512,0.111012705,-1.3386123,2.6362984,-1.6109682,-0.5745933,0.54622364,-0.12126052,-0.43984202,0.9596194,-1.281731,0.16611148,0.90185475,-0.79125595,1.9583974,1.0802928,-1.0140489,-0.10649875,-1.4576098,-1.505162,0.39028338,0.43111777,1.0118763,1.5362074,-1.3056642,-1.3066704,1.2145358,-0.3181271,-0.007902307,0.14604548,-0.44768858,1.3129123,-0.673543,-0.88512677,0.6308415,-1.3287667,-1.4417119,-0.8577012,0.61624837,-0.874936,-0.02533234,1.2818255,1.6970425,-0.55055374,1.1479585,-0.3944181,-0.83625376,-0.115524955,1.4432759,0.38920075,0.9212995,-0.91442543,-1.6215497,1.0676676,-3.1257532,0.28134626,0.69837505,-0.9890339,0.4349866,-0.20389043,-0.5688659,0.4820572,-1.3331211,0.102839895,0.6025735,-0.8133602,-0.57458067,-0.18153922,0.34100443,-0.77039343,-0.89399874,-0.13652726,-0.5962511,0.14225173,-0.6845566,0.08706184,0.9144261,2.3579931,-1.892276,-1.5283712,-2.800457,-1.678668,0.268799,0.69831747,-0.60918427,0.43568093,-0.82562584,2.00205,-0.087185636,0.9798993,0.27253625,0.0079727275,-0.86858195,1.0738603,0.6983321,0.22266665,1.8195685,-0.16171433,-0.95132834,-0.8437715,1.4172274,1.3957244,-0.009582179,1.3728261,0.55097944,-1.2855505,0.53417885,-0.7876909,0.6841093,0.12362461,-0.35959637,-1.3701484,0.49457505,1.2750441,0.4076748,-0.9785271,-1.205919,-1.6995525,1.8867007,0.04705375,-1.1190544,-1.7453513,0.58673507,-0.08460311,-1.2074162,-0.02574104,-2.2367013,1.7165715,0.6652693,1.6414276,0.38443694,-2.3765926,-0.6221931,3.4590888,-1.745919,-1.1230361,0.34533894,-0.6225904,-0.05304456,-0.48233986,-1.3765968,-0.7833794,-0.26192245,-0.9850695,0.1432384,0.903192,1.370037,0.39667127,0.22289658,-0.8464272,2.2757797,0.3075669,-0.90732586,-0.48733175,1.4431857,1.8820438,0.14508931,1.6024221,-1.1003917,1.0545585,2.1958869,2.1279724,-0.59737515,-1.5234491,0.9496252,1.1863275,0.8696484,1.8653704,-0.3578848,1.3693688,-1.2366282,0.004236032,2.5708656,-1.417027,-0.088902675,0.7666274,-1.6412728,0.47643945,-1.661926,1.1613384,-0.507078,-1.3932309,-1.9170351,-1.3810165,0.06004719,-0.31967455,0.23544954,-1.2640923,-0.6372382,-1.5159228,-0.8073457,-1.7314812,1.0970881,0.37882087,-2.0632806
bcl2l1,0.37633508,-0.11642778,1.7984337,-0.13684823,-0.7554212,0.845731,2.5074635,-0.23963086,-0.40835586,2.247837,2.5053084,-0.16771308,0.9379242,-0.37711805,0.42837223,0.3622297,0.0060046045,0.64359015,1.9703496,-1.0369618,2.5616896,-0.30881312,0.6331424,-0.3408996,0.105432875,2.4767666,-0.7998955,0.26928365,-0.30808902,0.59603786,-1.8285484,0.34268716,-3.0855274,-0.9358358,0.021706564,0.028676312,-0.47715852,1.7167302,1.56204,1.1625358,0.120013006,-1.1351266,1.3413514,-0.5685697,1.3085067,0.23041613,-1.1187453,0.90822154,-2.2536988,-0.50970936,-0.043607563,-2.343933,0.24395695,-0.56581974,-0.08804299,0.9743107,-0.9167788,0.1648486,-0.13732511,-0.7315493,0.19303045,-0.3791136,-0.66788286,-1.1807687,-0.22872403,0.78517485,-0.77091,-0.7437699,-1.1292183,-1.2343565,0.34779286,-0.2359595,-0.39795664,-1.5610372,-1.1755152,1.655694,-0.96188116,0.32921565,-0.9988103,-0.45609814,0.40055606,1.1013793,-0.25899395,0.81019676,0.90752685,-1.5015212,0.61449605,1.9917268,0.18029952,1.9415277,1.0751055,1.0832843,-0.5834998,0.32596153,0.63728154,-0.61950576,-0.33119357,0.023473654,0.9101077,-1.4595519,0.11860996,-0.2891613,-0.7150347,1.5730916,1.197197,-1.1722527,3.4956036,1.8328215,-0.91558665,0.6934093,-0.4173716,0.6133227,0.9551027,-0.36144623,1.059168,1.1254344,-0.45527685,-0.5744829,0.073317476,-0.042640764,1.6046834,0.040560707,-1.5541755,-0.3562512,-1.9794751,-0.08593112,1.2101495,-0.86414695,0.19652219,-0.05860237,-1.9461159,-1.4066169,1.187946,1.6520677,1.0053294,-0.6888839,0.3133145,-0.923327,0.11854973,-1.784495,0.672875,0.33295912,0.52601093,-1.0178189,1.3627195,-1.6690766,1.5187072,-1.2979224,0.92160344,-1.7652346,-0.15044864,1.9670489,-1.474672,-1.449163,1.0980048,-0.38213703,0.2847618,-0.8452377,0.3971565,-0.22338685,-1.3797449,0.19397539,0.02723896,-0.30123425,1.253363,0.1494314,1.4639714,-0.6173858,-0.2878101,1.4657197,-2.4592643,2.3484225,-0.21055959,1.3302748,-1.1211534,-0.44577873,1.1665413,-1.0670574,-0.7953916,-0.69298095,0.77768743,0.2929887,2.636245,2.2905872,-0.19970044,-0.49944755,-0.7066983,-1.017335,0.6042293,0.63171035,2.4902985,-0.98809135,0.74252135,2.3475933,1.1644548,-1.1290202,-1.62475,1.1223897,1.5569576,-0.6737701,-0.34311822,0.40180016,-1.5583088,-0.19701946,-1.4887245,-2.2408187,1.2878443,-0.14202778,1.6677605,-0.90623134,2.1217105,-0.36817595,0.83381885,1.5808474,-0.66408044,-0.20639479,0.50402886,-1.1896081,-0.81721926,-1.2776235,0.3032354,-0.77954596,-0.014596856,-1.084304,-1.2324753,-0.50699085,0.5179869,-0.50570315,0.29565066,-1.0760714,-1.2538117,-0.023619708,2.0137088,0.4659028,1.1214857,0.6133378,-1.1929619,1.5095583,0.25166783,1.5501666,-0.91204816,0.26515862,-0.5072973,0.072146215,0.14685088,1.3611739,1.0255358,0.41747382,0.5198676,-0.44651335,-0.7622346,0.25278,0.8478923,-0.20635623,0.25922897,-1.3654075,0.079611346,0.6717525,1.1702074,0.45348346,0.34423125,1.7008371,-1.2026894,0.1264375,-0.74281454,0.2782711,0.78803873,0.0753184,1.8616549,-1.0077637,-1.2201996,-0.011735293,0.6904266,-0.8996844,-0.5264983,-0.045770586,0.7065079,0.53444225,2.9677389,-0.35852322,0.39320493,-0.2275274,0.08732998,-0.6948799,-0.6800262,-1.159362,-0.17585616,1.8674483,0.6425201,-0.51492786,0.3005246,-0.32606965,-0.7116081,0.16253263,-0.52060455,0.3009081,1.6053306,-0.11911823,0.89854753,-0.8827888,0.3737319,0.3941943,0.24618836,-2.2401829,-0.673452,2.561482,0.6653655,1.0851166,-1.6083755,-0.04007547,-0.319717,-0.32469755,-0.8183234,0.2341815,-0.689994,-1.255036,-0.646484,0.92677706,-1.8236382,-1.0724702,-1.3213992,1.9671493,0.26239696,0.4829322,1.5290188,1.179126,1.7781031,0.3635145,-1.3382,-0.986809,-1.2301253,0.3561992,1.2929528,-0.10589658,0.027011579,0.3637666,-0.29280826,-0.44447815,-1.2577087,0.62230027,-3.1247146,0.77471936,0.025302239,-0.35348302,-1.0976003,-0.49583915,-0.454896,0.53899884,1.3397973,-0.54484653,1.0541111,0.759902,2.3463612,0.85795414,0.447513,0.85125786,2.179038,-0.41132197,-0.86015064,-0.25432256,1.6445417,0.8873953,-0.025569692,-0.53679377,1.0795699,0.3421798,0.80439705,-0.9089699,1.4965439,0.6529564,-2.9058237,-3.381453,0.6148319,0.10314933,-0.078515865,-1.7176843,2.2042344,-0.5842012,-1.0416979,0.4462576,-1.3905519,1.0488993,1.35174,1.0226693,-0.5061869,1.2735344,-2.788756,1.49488,-1.3034195,-1.9601793,-0.4388091,-1.2438327,-0.4365663,1.532014,1.357581,1.0802033,-0.6543052,-0.4546474,-0.43890575,1.0694449,-2.6447217,1.5935822,-0.47046125,-1.0221244,2.6498144,-0.021006186,-1.2338402,-1.629337,-0.024191778,0.02603591,-0.9980518,-0.27483582,0.9700674,-0.08629129,0.48422304,1.6183008,-2.5945992,0.09347867,2.3638675,-1.0579259,-0.7867336,0.78211266,0.17980774,1.1823511,-0.23387767,-0.13049148,-0.35756537,2.0484204,-0.45904472,-0.37746978,0.77277535,-0.11833133,0.53301275,-1.0718347,-0.27214652,0.855364,-0.39833388,0.031213336,0.71067613,1.4542835,-1.6946673,-0.3881567,-0.04128311,-0.073730215,-2.0984933,1.2683767,-1.4157612,-1.4800048,-1.9747354,0.1975234,-1.2112666,-1.1334112,-0.79885095,-0.17253575,-1.1205881,1.0869725,0.5862737,-0.11876097,-1.2302585,-0.9157362,1.6950206,0.56098205,0.67877495,0.10684475,-0.5954903,-1.4280143,-0.98379457,-1.9475949,0.62881476,-1.0971917,-1.4540936,-0.113717265,0.449448,1.495393,-1.7005147,-0.24186324,-1.6147316,0.7131487,1.8074808,1.3029308,-1.2882934,1.4981596,1.3707396,0.5169475,1.0063827,1.0890872,-0.33785424,-1.5008068,1.1238043,0.20852509,-0.20239346,-0.5838159,-0.21618155,-1.0459001,-0.5747122,-0.8430756,0.3399587,0.5293626,-0.4750146,0.91642755,-0.8081668,-1.694004,-1.4854596,-1.3222721,-1.9239477,0.044931997,-0.98560894,-0.81054205,0.21581115,-0.67841023,-1.3075677,-0.93568
nfkbia,-0.96922296,0.4770796,-0.44810876,0.30477676,0.026013253,-0.07800658,2.7116492,-0.636901,-0.8374799,-0.13132064,-2.8478072,-1.312651,0.24412654,-0.62085134,0.87675226,-0.033915684,1.3020427,-2.3306243,-1.6469511,-1.0613564,-1.761389,-0.26834086,-0.14835887,1.1925082,-0.256765,-1.6646073,-0.8423302,-1.8211739,-0.99550164,0.015876574,-0.93985367,0.6698386,2.519109,-0.21994412,0.12983666,-1.1570723,0.006617674,2.3345933,0.12172557,0.5597095,1.1057628,-1.0489728,0.17709823,0.019701935,-0.4101619,-2.1759858,0.65824425,0.36670324,-0.5245282,-0.46615896,0.37742817,-0.28512666,0.44210264,1.5657543,0.004260793,0.4732458,-0.7815817,0.35644305,-0.1827164,0.80231994,1.470171,1.2283769,0.54742557,1.9453492,0.86820006,-1.0051521,-0.19811322,1.1292447,-0.76265013,-0.4605755,1.1239243,-1.3752024,0.16684233,0.38345098,-1.9724176,0.08931007,-0.54203254,0.7166238,-1.9883976,-0.5587618,0.057470705,0.18348993,0.6943648,-1.118466,-0.6530603,0.8661081,0.2673399,-0.7144346,-0.43973166,0.20968843,-1.2159297,0.50529027,0.571026,0.07123663,1.137186,-0.4240223,1.4691787,-0.8882161,-1.184452,0.874442,-0.11805341,2.8423395,-0.44082704,-0.37970132,-0.006098523,-0.643856,-1.5399112,-0.06685755,-0.034490556,-0.29810506,0.83525044,-0.19966133,0.36580083,0.006765205,1.4311305,-1.9627713,-0.0024858469,0.81688875,-1.4550908,0.974956,-0.8619917,0.5525695,2.8657992,-1.1224693,2.1620548,-0.057778545,-0.7637552,0.28925315,-0.30555633,0.7325617,2.339453,-0.06598241,-1.1020135,0.7359581,0.17737012,3.1402893,0.016403645,-0.859558,-1.8766599,-1.048586,0.34317082,-1.0152978,-0.55113405,1.7784059,0.81417906,1.8661919,-0.9669781,1.0200307,-0.67588735,0.6222748,0.13600822,0.7957347,0.34206185,0.8733627,1.0239282,-0.24655147,-0.1905494,0.3964491,-0.9565489,0.9307574,1.494085,-1.3904351,-0.49051753,-0.19643398,-1.92917,0.47694212,-0.5820752,-1.5267457,0.93815404,-0.5401848,-2.9195633,-1.9039377,1.0652153,-0.13947666,-0.9559778,-1.435109,0.8111791,-1.6185681,4.191751,-1.0371668,0.7792692,1.536454,2.0647244,0.63368565,-0.23048131,2.623743,-0.059058078,-0.48983434,-0.063903466,2.2889388,-2.0953062,-0.27113053,-0.103431374,-0.57045245,0.11968076,3.937682,-0.1303246,0.052678093,-1.0981936,-0.04069247,1.2730047,0.6938014,-0.2946813,-0.5120988,0.7512242,-0.06175956,0.27164602,1.2833334,-0.8850663,-0.2877516,0.9717527,-3.8412116,0.29909664,1.1780696,-2.0293646,-0.12846716,-0.3131957,1.1125953,-1.3566815,0.36797464,-0.043792162,1.8399521,-0.31576687,0.10904422,-0.2000803,-1.0553026,-0.63433254,-0.19554093,-0.6229847,1.6308005,-0.11057762,-0.10575757,0.96208215,0.13978729,0.537584,-1.4383999,0.045770764,1.0250618,1.3597608,0.34194168,-0.6767483,-0.15449509,0.17294164,0.8031882,-1.3734308,2.3071575,-0.061223827,-1.1217237,1.1895524,0.1961363,0.9278111,1.676768,2.6548624,0.9728924,-0.017523853,-1.0404599,-2.869718,-1.7415833,1.0467306,-0.26998237,-0.4452419,0.064340495,0.86320025,1.460486,2.7585144,1.3466961,0.38860187,-0.5730388,-1.581258,0.17309158,0.103436634,-0.12005253,-0.3907745,-0.96229863,-0.45978448,-0.5976399,0.7282252,0.0012835261,0.49951953,-0.2694182,-0.654601,-0.6930984,-1.0022525,-1.130725,2.4854765,1.1616064,-1.4261701,-0.8388678,0.08343019,1.6078862,0.7803031,0.38300088,0.49595276,1.4151614,-0.4634161,1.6304251,-0.6030851,-1.1233674,-1.8810604,1.1769885,-0.72266376,0.359464,1.4820824,-1.0473714,-0.78021055,-0.95750844,-0.96160024,-0.25362998,1.2348709,-1.7155273,0.33639073,-0.77838486,1.7625799,0.10792012,0.24292381,0.3248481,0.050956618,0.7828366,-0.27309424,0.20910996,-1.1599169,1.2925035,1.4566237,-0.052281242,0.85790956,0.8611024,0.41201192,-0.8037506,-1.4528062,-0.2749473,-2.0076094,2.2061257,0.073870085,-0.3568111,0.29976624,-0.7788801,0.9090156,0.055973977,-0.06747388,2.736427,0.48631412,-0.6616588,-0.141212,0.6634178,-0.14295453,1.7893083,-1.5739801,-1.1415133,-0.3324166,0.17534018,0.5436009,-0.06757405,1.9982296,-0.10625564,1.1433694,0.69101846,-1.306285,-0.42694014,1.640155,-0.39343923,-0.058032252,0.41527104,1.8611037,-0.8823203,-1.0173075,0.12909009,0.39151865,-0.1316822,0.7319331,0.2916268,-0.56498206,0.009646133,-1.2197948,2.4990573,-1.5101157,-0.40955335,-0.4056072,-1.6398228,1.5856141,0.8057822,-0.52020764,-0.42662647,0.6885775,-0.41109887,-1.2491169,-0.13057055,-0.24745922,-1.5981318,0.33041242,0.63072854,-0.83540785,-0.46965593,0.91002035,0.6519096,0.81187034,0.85658973,-0.52203345,-1.6810845,0.25854757,-0.46171954,-1.7860409,0.096329756,-1.4118873,-0.35326806,1.0413358,-0.4300272,-0.04439588,-0.28167212,-1.0321435,1.7666681,-0.042935092,0.3822867,-1.2649955,0.28174886,0.31577832,2.3764262,-1.3102874,-0.5992032,-0.73608845,-0.43126118,-0.71377647,0.006478363,1.4025307,0.503644,-1.4634277,-1.3941089,0.9729297,-1.0546976,1.3493003,-2.1809695,-0.40805805,-1.5046074,0.5280106,-0.7810279,0.039296754,0.5483826,-1.1089954,1.0493244,-2.3224194,-1.3686702,1.2457106,-1.047736,1.1184304,0.71922976,-2.0500977,-0.6920197,-2.1788774,1.4258158,-0.80133605,0.5375949,-0.17022015,2.0105796,-0.12347561,2.2567897,0.8900403,0.10181316,-1.4088243,-1.1587994,-1.8480494,0.5203704,0.27156052,1.4600985,1.1366885,-1.004943,0.23777597,-0.080997795,0.68520486,1.9166564,-0.5939489,-0.20898296,-1.7989954,-0.026710365,-1.3157257,-1.9282969,0.91956687,-0.2783692,1.0279984,0.9749532,-1.219936,0.86073345,1.319232,-0.9994562,-0.55730903,1.4841444,-1.2540967,0.30192548,2.3367186,0.3301646,-1.6254126,-0.049350135,-0.16063014,-0.20052764,-0.8773488,-1.2528292,0.19890104,0.10330559,-0.79547006,2.9631472,0.33012933,-2.1050065,-0.2011777,1.1595316,0.22815658,-0.014519011,-3.7856393,-0.055042252,-0.8373857,-0.05338028,-0.7941254,-0.56508917,0.9779218,-2.161159
nfkb1,2.7139444,-1.6517526,-0.59637725,0.68409556,1.2728459,2.5792553,0.039340198,0.49880525,1.3357857,-0.16109145,-1.8393539,-1.1804351,0.6432092,1.2392426,0.8510155,-0.867836,0.99114275,-1.9703912,0.84978205,-1.3063968,-2.6833127,1.5967884,-0.96273696,0.56832606,0.6208565,-0.8564491,-0.94805604,-1.4759954,-2.5922341,1.7026536,2.1000774,-0.23038562,-1.324887,0.44324315,-1.6068523,1.3753455,-0.5300557,0.7323666,-1.4073349,0.32160178,0.7556391,-0.23722208,-0.08572342,2.0890372,-1.4029851,-1.4338479,-0.903367,0.24317671,0.09163484,-1.4959869,-0.5437374,-1.1245487,0.0049602333,0.023612855,-0.26952124,-0.026152637,-1.2507826,-1.2310858,-0.37212586,0.13211921,-1.6084825,-0.58600473,-1.1812739,-0.24413797,-0.1966337,-1.4619397,-0.43575522,0.7392328,-0.004187344,-0.904018,1.2289004,-0.37611818,1.5437071,0.7174814,0.3786341,-1.1828228,-0.9755683,1.6249293,1.5126424,-0.24396856,0.20697002,0.31605113,-0.6132556,-0.4084846,1.0431349,-2.6894574,0.7694953,0.13059458,1.1229947,0.14041142,-1.6920009,0.3638629,-0.71981883,0.41089478,2.1961927,-0.84597695,-0.032550838,-1.0781316,0.826817,1.8547975,0.8706213,0.14329126,1.8984135,-2.4034994,-1.1744523,1.107272,0.34036222,1.4923908,0.72206986,1.1495622,-0.9625697,-1.5924164,0.6451065,-0.3780796,0.42460096,-0.3065218,0.49682617,-0.54147124,0.8695635,-0.7412012,-0.5589929,0.4521247,1.9984567,0.20506121,0.78663325,0.54684603,-0.7246478,-1.4349767,-1.1646211,0.12865032,-0.51735866,1.4839778,-0.4826175,0.2586851,-1.012932,-0.034226462,-0.46808273,-0.9497233,-2.1732621,-1.3689251,0.7934441,-1.6534929,-0.7369497,-0.5836734,-0.5864435,-0.7863191,-0.40502784,2.812245,-1.4791356,0.87531495,-0.90450555,-0.19348098,0.35322803,-1.2536923,0.4827932,-1.0106161,-0.23386139,0.4306837,0.1988883,1.3476913,0.39228463,0.22668119,-0.6779122,0.40936947,0.20973533,-1.5936042,2.5207484,-0.37723628,1.2153442,-0.28023586,-1.8008825,0.71947414,-0.31262618,-1.7620777,0.30826852,0.28699574,-0.5647164,-1.2580683,1.8542607,0.48986527,0.75034946,-0.03857868,0.32332838,-0.8036045,0.4291978,-0.9179809,-0.86503446,1.9407102,-0.30381668,-1.1432621,1.989162,1.0895039,-1.8619224,-1.2783676,-0.6448608,-1.9268037,0.5950002,1.9811888,0.20284666,1.3384882,-0.13013718,0.18533377,-1.3945872,1.7378036,0.8444906,0.73716897,0.7808232,0.2046506,0.7337883,-1.5685824,2.6048896,-0.34443897,-1.2854831,-0.8917682,-1.7732763,-1.4978074,-0.41916966,0.9627536,0.23800193,0.60960644,-1.5086033,0.9181837,0.9639478,0.57080704,-0.7553356,-1.1635529,-0.4019358,-0.5534204,0.8668312,0.2213347,0.21632008,-1.8422166,1.043641,0.68849087,0.95155925,1.6328543,-0.25905594,1.3945475,-1.4427055,0.22873363,0.44809255,1.7587357,-0.14377014,-0.5937858,-0.66653,1.4463314,1.2852085,-0.49582228,0.11619396,1.9240929,-0.11740056,2.7600377,-1.5497903,0.5015531,1.2887355,-0.14735243,0.3632525,0.51149136,-0.64155257,0.22074695,0.23433718,-0.41843852,-0.4157966,0.69493246,1.8572463,-0.010943951,0.6407141,-0.6502811,-0.78921604,2.0806673,0.52551293,-1.0201399,-1.2960807,-1.642883,-0.37401304,-0.65463597,-1.1068912,0.00073843513,0.5284592,-0.37697077,-0.669405,0.35837048,0.8524166,0.17406477,0.38514516,0.46504048,-1.6145741,-0.84706455,0.85684043,-1.638108,1.8553194,-0.52734596,-0.3313368,-1.2428101,-0.69852656,-0.25383446,1.2633303,-0.7613499,1.0385517,-0.38729718,0.4213038,0.21281005,-0.16839571,-0.90167,0.36492187,-0.92750365,-0.3720801,-0.08184421,0.36714712,0.4333256,-1.3633804,-1.2807873,-0.8227994,0.4027319,1.0784863,-1.3419844,0.978746,0.06986846,0.3789966,1.4263909,0.26990238,0.92653424,1.151426,2.4908912,0.2777834,0.6731464,-0.45259708,0.6040079,-0.30484137,-0.08425448,1.5402024,1.0843455,0.25146225,-1.9937323,-1.8180536,-0.15848204,-0.041397296,0.8053174,0.0068584997,0.015030352,0.15400441,0.9794542,-0.33588606,-0.5130228,0.9819119,-0.28556877,0.9121451,-1.4644271,-0.07747069,-0.4153026,0.8865028,0.50533444,1.252648,-0.5667825,-0.80241305,2.1318521,-0.80974215,0.6621729,2.5690093,-0.622755,-0.30812794,-0.24366903,0.19167341,-0.8727777,-0.17739734,0.008476031,0.07157001,1.1010026,1.1567088,-0.2217835,-0.55270845,0.8152247,-1.8747619,1.9279062,0.48118284,-0.4146516,-1.5546622,-2.4636426,2.8334079,-1.0592912,-2.7274806,1.3293681,-0.32377142,-0.158274,-0.5322564,-0.859343,0.07552755,0.22384587,-0.6788127,-1.1722924,0.9933197,-1.709167,-0.89489716,-0.9977213,1.4841744,1.6810678,-1.6576005,-1.7912072,0.55207646,-1.7489728,0.4117707,-1.1201268,-0.95630974,0.2401819,2.401572,1.0335203,-0.19305567,-1.3572183,-1.6950222,-0.4398431,-1.6425872,-0.49319994,1.8088467,-0.90221936,0.2739018,0.7005495,0.028537892,-0.5888438,0.7278768,0.15189385,0.22427289,1.1540539,0.030788781,-0.54464334,-1.1874609,2.2099257,-2.7318454,-1.3199766,0.9309273,-0.8379222,-0.34940937,-1.1072555,-0.06477368,-0.90527064,0.57926947,-0.118047744,1.1180998,-0.2789525,0.6094267,0.8560736,1.709374,-0.2918481,-0.29652065,-0.21461844,0.5507223,0.5927582,-1.9051687,2.0185876,0.79289633,1.9862331,-1.1144544,1.1096183,1.6260056,-0.75368667,1.1542336,-0.92233217,0.03737182,-0.6886253,-0.6061278,-1.207605,0.53974074,-0.96168333,0.44477147,0.34871545,-1.6270397,-1.3487961,0.5690173,1.1911788,-0.6728057,0.44539702,-1.3533971,1.0279659,0.225846,-0.9383482,-0.53677666,1.5324689,1.3805537,2.7564914,-0.2373127,1.05548,0.95364857,0.08549829,-0.7874367,0.9368093,1.9853134,0.57082814,0.2592721,0.76276857,-2.7590404,0.6339865,-0.70070714,0.93767333,2.6638434,-0.8558274,0.18171284,0.21095145,0.71347004,0.9976338,2.051218,-2.245149,0.30130515,1.4000185,-2.1451232,-0.41982317,-1.5333813,1.0074137,-2.4151816,0.40057012,-0.07632742,0.10380857,1.0902025,-0.3941667
